d0 0.3337923 -0.28650424 0.1175704 0.07451086 0.13267332 0.12392264 0.08914405 0.16287397 -0.12200837 0.0015268055 0.20589069 0.11486098 0.27724284 -0.057997875 0.028984906 0.59519935 0.33547723 0.4565405 0.36057454 -0.11650154 -0.13569254 0.21148354 -0.06936646 -0.0267159 -0.40992242 -0.100274734 0.15755534 -0.09600232 0.009337845 0.12873708 -0.09954671 0.11220251 0.08247457 -0.083704606 -0.10883619 0.097286455 -0.090667784 0.08673723 0.30607545 0.23460224 0.26367033 -0.15354949 -0.15395595 -0.08629777 -0.282534 0.16090375 -0.15214586 0.05054673 0.21719193 -0.07146651 -0.038088467 0.14373374 -0.08772378 0.20637123 -0.25481498 0.0007566658 0.07810329 0.022730265 -0.41269487 -0.076285824 0.14833353 0.13387528 0.120039344 -0.16613692 0.114988014 0.19996198 0.26566854 -0.005091864 0.016429575 -0.45225704 -0.16769823 -0.12513737 0.16996038 0.0028627445 0.102982 0.057328947 0.013777544 0.085530944 0.08724732 0.13588798 0.18652655 0.4178229 -0.12530747 0.115189224 0.20578523 -0.13000129 0.20763753 -0.07825048 -0.11752233 -0.3184125 -0.022387482 0.5207933 -0.0041909977 -0.53851 0.092796266 0.009847147 0.011539897 0.004119312 -0.048041858 0.22755831 0.110897586 0.16014758 -0.22792391 -0.10848748 -0.096901245 0.15346505 0.11736352 0.17931205 0.0643007 0.18412702 0.24145043 0.25911897 -0.4346234 -0.112816304 -0.51142454 0.15260549 0.04466565 0.14673994 -0.007120264 -0.099725135 0.102960095 0.014755466 -0.03136062 0.22877431 -0.30529934 0.18330483 -0.035846684 0.38290912
d1 0.13946104 -0.14799134 0.175724 -0.04053993 0.13359332 0.023836048 0.012756039 0.023931928 0.08191867 -0.048247095 0.077244826 -0.016226111 0.14959693 -0.0075972886 0.061417297 0.35262004 0.077413164 0.39166576 0.15495773 -0.15017313 -0.25395662 0.101248465 0.08417667 -0.0074076857 -0.3475313 -0.12714824 0.06740886 -0.10018131 -0.0693485 0.12504609 0.06441583 0.012661958 0.105046056 -0.12875813 -0.17389528 0.08039153 -0.027208755 0.0053532394 0.3400833 0.24547035 0.105011 -0.27247724 -0.074925855 -0.1011486 -0.24419318 0.17989284 -0.2500249 0.0017242349 0.21423239 0.062404137 -0.09264774 0.089302905 -0.018447973 0.018216891 -0.18473691 -0.0011987354 0.05034595 0.0016731822 -0.23110089 -0.16727963 -0.0109196175 0.16516943 0.059505966 0.16237147 0.024881445 0.02541863 0.1613061 0.070301905 -0.01830128 -0.47767276 -0.16310291 -0.19438665 -0.042418975 -0.027953766 0.10445273 0.11460743 0.055292927 0.10234625 -0.00049041834 0.02750243 0.17247556 0.24341197 0.10132963 0.12511715 0.04778771 -0.13612618 0.18380514 -0.12644145 -0.1282547 -0.27450982 0.017976526 0.43313313 0.04935853 -0.42746773 -0.04365065 0.029183717 -0.028350342 0.0041613877 -0.026326088 0.15016994 -0.06818686 0.15156713 -0.17915887 -0.17735691 0.0036151202 0.06217401 0.08839663 0.16676812 -0.05503761 0.21362263 0.268338 0.19819334 -0.33297378 0.026700495 -0.26913625 0.29473984 -0.031900927 0.18421915 -0.057045106 0.011499472 0.1430304 -0.014677388 -0.03558442 0.20696504 -0.013537118 0.014034993 -0.032051142 0.27070153
d2 0.21867014 0.090477295 -0.04263132 0.009712212 -0.29953015 -0.38785893 0.3049103 0.018037818 -0.0070637553 -0.02197239 -0.085011005 0.11418066 -0.59330213 -0.0029288058 0.010623235 -0.11740328 -0.025217053 -0.21203333 -0.21546966 0.10783789 -0.06942321 -0.23593 -0.23850884 -0.028960459 -0.022270966 -0.34484643 -0.22035284 -0.07359956 0.17268382 0.12842083 0.17235981 -0.0709704 -0.053053375 0.2912392 0.19732668 0.10669598 0.10383459 -0.24725989 0.035378337 -0.034083765 -0.11418148 0.5157557 0.52328426 -0.017841348 -0.03308571 0.020604702 0.38674507 0.29082522 -0.24397302 0.32229185 0.10643457 0.19429356 -0.24247648 0.22256742 -0.02228485 -0.15624811 0.12666953 0.24099287 0.02644093 0.226672 0.17308304 -0.44991815 0.38352117 0.06649961 0.14372249 -0.14557141 0.0067447782 -0.07749209 0.22284216 -0.17200722 0.14108704 -0.09404663 -0.056896675 0.07988197 0.13607776 0.11611391 0.1900865 0.04494026 0.030752653 -0.014165688 0.03968455 0.01686185 -0.10185428 -0.031925116 -0.10074546 -0.014306705 0.11063723 -0.07460116 -0.22616898 -0.15117888 0.04931674 -0.09616426 0.04745263 -0.009506861 -0.05064788 -0.0033120075 0.08759518 0.04242872 -0.33068615 -0.04549443 -0.17888436 0.06521252 0.13136919 0.07075687 0.15587418 0.053593427 -0.09942221 0.15975246 -0.0794563 0.09949211 0.22752784 0.08778832 0.123186134 0.08506506 0.194798 0.12729748 0.011696618 -0.059805978 0.054859173 0.06498979 0.15202561 -0.11705975 -0.0260787 0.02690602 0.10153328 0.047846377 0.08780364 0.0017241619
d3 -0.40888047 -0.06812636 -0.13924973 0.2811048 -0.19133255 0.32349887 0.014036485 -0.10641919 -0.07505928 -0.06147457 0.14703834 -0.17370957 0.06921102 0.024529016 0.180507 -0.04934729 0.031827167 0.31486472 -0.13109386 0.34992817 0.06780009 -0.13564725 -0.48161036 0.1748168 0.22396293 0.16965811 0.06951626 0.08086288 6.464949e-05 -0.19794443 0.25860128 -0.030566161 0.016601069 -0.015949626 0.028352976 -0.07236814 0.22158307 0.11982227 0.3587793 0.13919456 -0.17915963 -0.4386052 -0.31898725 -0.08419584 0.48320073 0.15103678 -0.3113195 0.24495585 -0.10653458 0.23551467 -0.11406095 -0.21103944 -0.0066843475 0.21309818 -0.010470827 -0.021548916 -0.37290993 0.34226024 0.22229856 0.18216696 0.14803036 -0.2160956 0.08301815 -0.22762027 -0.104500085 0.049741164 0.04910492 0.04648005 0.073328525 0.0058362214 -0.089567885 -0.23842427 -0.007796438 0.012085156 0.01010456 -0.08911977 -0.0015846544 0.3378117 0.1614344 0.33720192 0.07659009 0.05515486 0.32570526 0.054759447 -0.09336925 -0.065683015 0.013285571 0.030924395 -0.3312973 -0.13385773 -0.0030405824 0.26356024 0.0544772 0.21047378 0.07473863 -0.017286204 0.14129494 0.29196832 -0.050863337 -0.032787777 -0.21516033 -0.094211824 -0.15102245 0.21922527 -0.42829433 0.055243906 0.08781073 -0.40246174 -0.07376848 -0.1152927 0.23622006 0.075953476 0.08344248 0.061798688 -0.01781081 -0.105090775 0.15117875 0.48443562 0.21224631 0.28955734 -0.058890466 -0.0031156316 0.26909125 -0.034125984 0.004133705 0.0826573 -0.11955831 0.008675046
d4 0.04962633 0.09495 0.08670852 0.019524127 0.0058165044 -0.06972265 0.13990147 -0.06635449 0.17659172 0.13531445 0.03928935 -0.074251845 0.0140726045 -0.06763902 -0.11777155 -0.30161086 -0.08001777 0.014974498 -0.22813833 0.20525128 0.19621454 -0.25313705 -0.18581471 -0.012900561 0.22560586 -0.4611915 -0.014043408 -0.026751662 -0.17620489 -0.11233603 0.12221841 0.053924974 0.19597578 0.13028935 0.07838102 -0.45995194 0.15439825 0.010385094 0.008896964 0.09247411 -0.14087425 0.04884366 0.14646657 -0.21601884 -0.27866855 0.12521529 0.05320581 0.049071975 0.03318636 0.23311433 -0.005106703 -0.16851524 0.120734386 -0.047404822 -0.123013735 -0.06364666 0.02225871 -0.32500622 -0.1494275 0.12140719 0.05392686 -0.23005256 -0.118869826 0.06469834 -0.08655265 -0.09383521 -0.033705637 0.04226275 0.34367386 0.020522455 -0.068368696 -0.101497315 -0.024262298 -0.06772268 0.106906235 -0.050563253 -0.016695246 0.1693038 -0.010694319 -0.013984907 0.13002875 0.03323509 -0.14326604 -0.15469885 0.04421787 -0.01898522 0.043224655 0.054800417 -0.06958886 0.00078436855 0.16206369 0.26928222 0.035443563 -0.12157347 0.0013972778 -0.17939927 0.17971353 -0.0024809556 -0.04051102 -0.031541497 -0.20062533 -0.04405771 0.13207375 -0.051544566 -0.1585251 0.041976534 -0.05296273 0.05890448 -0.14244255 -0.08892307 0.10387868 -0.1406621 0.1028721 0.051099222 0.015090472 -0.25605124 -0.12593961 -0.096120864 0.01898782 0.15452704 -0.2169274 -0.14207335 0.16396075 -0.04437235 0.04344377 0.04011125 0.013936228 0.19174615
d5 0.14432189 -0.19594792 -0.28929332 -0.2748935 -0.43332046 -0.35339788 0.03256256 -0.015048286 -0.05962937 0.0032932013 -0.10809812 -0.15180601 -0.32288375 -0.0013353087 -0.15855709 -0.2198849 -0.0035142158 -0.34388354 -0.16739757 0.15276752 0.09976658 -0.06474569 -0.3113751 0.045806706 -0.10102213 -0.25608253 -0.34718394 -0.24103165 -0.20349278 -0.12926331 -0.05120655 -0.3191576 -0.01482894 0.06567262 0.00047700506 -0.06408362 0.18186437 -0.12811339 -0.0698061 0.056198534 -0.22382808 0.35201773 0.32655627 0.04734674 -0.18403292 -0.0074907187 -0.091751024 0.24093688 -0.28905106 -0.11226146 0.24316354 0.2558545 0.022791889 0.25372338 0.07012176 -0.01881496 -0.2725825 0.28061417 -0.00856721 -0.083014645 -0.0060531856 -0.32325378 0.27615288 0.017754748 -0.10380605 -0.02732978 -0.21284905 -0.014770176 -0.042597815 0.39145637 -0.031834323 -0.23238994 -0.0021519028 -0.22695835 0.20542103 -0.14222991 -0.092483446 -0.29693997 0.06654962 -0.08864438 -0.099951275 0.08542314 -0.2555985 0.1935329 0.17126384 -0.028403658 -0.08194498 0.1609325 0.18094927 0.25603324 0.08281311 -0.26162297 -0.0036375837 0.040691603 0.22933318 -0.1575703 0.03371802 -0.13615565 0.057644796 0.010674161 -0.25435534 0.065389246 0.10567997 0.25265154 -0.0031580604 0.052516777 -0.09282619 -0.10577246 0.22323824 -0.15717532 -0.29237437 -0.055686288 0.027435556 -0.23826155 -0.1353921 0.07929296 -0.115272485 -0.20872715 0.17653918 -0.03307366 -0.13395576 -0.17598847 -0.10617599 -0.12498784 -0.14400782 0.030124338 -0.041699674 -0.20324202
d6 -0.1632023 0.1325898 -0.07338558 -0.053146556 0.09224482 -0.1003332 -0.15742381 -0.025585221 0.035488117 0.008431284 -0.11469471 -0.10743601 -0.28734422 0.059451036 0.0032935042 -0.14824188 -0.04624434 0.002899869 0.0804022 -0.042836826 0.018305225 0.051080547 0.09528112 -0.053669304 -0.08889302 0.1760601 -0.055676308 -0.10760152 0.007852553 0.033414792 -0.1564799 -0.12184221 -0.035947397 -0.032235667 0.08395661 0.0042383177 0.10513622 0.092051476 -0.046382505 -0.051776845 0.002606179 -0.049662177 0.07645451 0.15100335 -0.11340269 0.03466558 -0.13670945 -0.35277858 0.02427489 0.12482574 -0.03263719 0.24175103 0.07636268 -0.038271315 -0.11450521 -0.01729773 0.018103618 -0.2110587 -0.16651136 0.009108496 -0.22045244 -0.04143401 0.0033655225 0.3021492 -0.09935181 -0.024790969 -0.14509174 0.30609325 0.06268612 0.14522153 -0.012021157 -0.07443408 0.008036737 0.0035799423 -0.022658458 0.05813344 -0.13801433 -0.044068746 -0.13237393 -0.019992854 -0.00973138 0.009455634 -0.5286453 0.17322475 0.25638503 -0.088452145 -0.046295926 -0.109589204 -0.26962614 0.28728002 -0.105204 0.17997526 0.04004325 -0.07749462 0.04846107 -0.21911867 -0.45265868 0.008861828 -0.15526876 -0.026631333 -0.029440442 0.14391175 -0.038898714 -0.006066398 -0.09821489 -0.06385044 0.039583635 -0.015221489 -0.0022394166 -0.0030370387 -0.36630812 0.029851934 -0.11102728 0.020084517 -0.089715734 -0.11876671 -0.05024924 -0.04698332 -0.08703484 0.08120287 -0.02501151 0.049039613 -0.05380083 0.041738868 -0.049055334 -0.03478556 -0.029240884 0.1592638
d7 -0.37275922 -0.12613824 0.21525274 0.35059994 0.057294086 0.59236443 0.21404678 0.08922028 0.44259632 -0.28619924 0.030781904 -0.062132932 0.20862448 0.11653954 0.07703962 -0.060163848 0.26585603 0.099403046 -0.2467049 0.16980387 -0.055573773 -0.034056015 -0.30269492 -0.1763577 0.010813318 0.40442374 0.21641326 0.24902642 0.06796667 0.28723574 -0.12829328 0.22533603 -0.39300618 -0.36946478 0.16000244 -0.12447705 0.08284573 0.0564433 -0.061802 -0.2985476 0.24554817 -0.17937389 -0.24558549 0.006318041 0.25172457 -0.0056729065 0.27884403 0.22031881 0.16249228 0.33560783 -0.31593955 0.5142711 0.034092505 0.2208288 -0.03606707 0.012291616 0.07051386 0.1929305 -0.037519865 0.15449338 0.1549303 0.23972926 0.026913254 -0.28886962 0.2924584 -0.29111978 0.047580816 -0.08083189 0.0036663706 -0.07752871 -0.03132712 -0.083828 -0.06368887 -0.001913858 0.058653336 0.11815369 -0.048548397 0.15769084 -0.020017248 -0.025151514 0.02584675 0.012055116 0.09911148 -0.044305548 -0.028820934 -0.035338968 0.10624501 -0.017296696 -0.043618944 -0.09310727 -0.042701554 -0.052310098 0.011710311 0.05936767 -0.21548507 0.017816165 0.070658095 0.1871316 -0.1082126 -0.17761149 0.15493816 0.086592875 -0.09143665 0.21747966 0.023033673 -0.014130862 0.028063383 0.013573378 -0.03351481 0.107361145 0.3411988 0.13901354 -0.08712867 0.15293524 0.012395774 0.11550269 0.09597794 0.039886996 0.17376147 0.08210479 0.2424231 -0.20473275 -0.045375634 0.08852525 0.10895336 0.02608039 -0.011666757 -0.078332335
d8 0.24248844 -0.20120417 -0.49542865 0.18544827 0.047411 -0.061882805 0.08223346 0.07399945 0.013376574 0.10642737 -0.049097937 -0.064914525 0.04554163 -0.024780182 0.0071002804 0.42237645 0.18078452 -0.4097739 0.39093032 -0.0041850125 -0.04131813 0.23678848 0.27977273 0.021626493 0.14590763 -0.01100509 0.1644555 -0.04583108 0.010184014 -0.2157932 -0.2632123 0.13474211 -0.017714743 0.23514935 -0.0127331065 0.11005328 -0.04778905 0.19106913 0.07266705 0.27373582 0.18511608 0.009674612 -0.18145998 -0.028770234 -0.1189942 0.012619269 0.015583841 -0.025483072 0.108366124 -0.059146088 0.119309336 0.08991882 -0.059833284 0.123387255 0.1123516 -0.07701295 -0.06811621 0.012959657 -0.35786325 0.027291823 0.2060145 -0.22199275 0.065883376 -0.19525744 0.04011421 0.15853982 0.16831565 -0.07980557 0.063869864 -0.19553103 -0.1624665 0.42798233 0.3247767 0.027991297 -0.046739887 -0.07068545 -0.11120874 -0.061512813 0.03470531 0.21647637 -0.010977448 -0.22558512 -0.04378007 0.05774064 0.2654492 -0.091511846 -0.21447074 -0.05383544 -0.0713508 0.08788734 -0.06573352 0.45564717 0.07614561 -0.37796393 -0.0021752317 0.00902877 0.055451106 -0.024662917 -0.12396946 0.1416013 0.15544552 -0.24519964 -0.014546919 0.033879217 -0.2825134 -0.19398479 -0.012707356 -0.37772378 0.11595976 -0.24724905 -0.30293858 0.059589375 -0.43407696 0.02812424 -0.4696293 0.0030154581 0.17893942 0.13826312 0.07154078 0.11084106 0.048464954 0.27902213 -0.022425722 -0.08039366 -0.4114066 0.2043063 0.12055283 0.35760382
d9 -0.23650023 -0.31678385 -0.06097088 0.3549796 0.19978522 0.37112412 0.16524284 0.094790846 0.19851814 -0.05930443 0.29007888 0.017817983 0.15677185 0.12598668 0.17290552 0.27506962 0.37588456 -0.1834697 0.073086835 0.29948258 -0.004879837 0.2138093 0.040798023 -0.09424351 0.07035172 0.29307136 0.2903603 0.30409092 0.21956944 -0.11500555 -0.36519828 0.23371945 0.040597904 0.043583922 0.051197223 0.033030197 -0.08669786 0.27253455 -0.019456029 -0.030490529 0.22514062 -0.05819814 -0.22073847 0.14372371 -0.03243508 0.011860538 0.26672187 0.1235448 0.23583038 -0.28751537 0.052776873 0.10145679 -0.0037931148 0.22448401 -0.10014518 -0.037614018 0.020812726 0.09799094 -0.3184713 0.11350511 0.00028285044 0.036471687 0.12865417 -0.38789237 0.23113595 0.19733164 0.14941922 -0.20511147 -0.19610564 -0.20244329 0.03614816 0.17087817 0.10395163 0.08338434 0.0049030418 0.12069739 0.076723665 -0.10077795 0.03514326 0.17592528 0.019512799 0.049921654 0.25927508 -0.019380338 -0.1896918 -0.07706329 0.2895769 -0.10897613 -0.23729214 -0.18955222 -0.07780444 0.12565976 0.12385936 0.1874488 -0.20717016 0.27808523 0.02740831 0.123951264 -0.17753181 -0.08960237 0.23167185 0.056615394 -0.1020646 -0.023444658 0.009647191 0.057498354 0.058127705 0.23305728 -0.18212955 0.30805424 0.388018 0.23475368 0.06932587 0.09391836 0.26400897 0.26027268 0.19095162 0.080049716 -0.17916487 0.06301842 0.22038053 -0.013277465 -0.010761531 0.19073635 0.21948184 -0.14134793 -0.110072576 0.11217563
d10 -0.21691957 -0.21616912 0.040965103 0.33585322 0.54606724 0.11724444 0.19734946 -0.013919012 0.23196353 -0.04264434 0.021785593 0.0065927953 0.041414607 0.16221346 0.13860846 0.0077668563 0.1413498 -0.23316854 -0.15090148 -0.13712846 -0.10435302 0.2734958 0.16697884 -0.069276944 -0.05658598 0.23077835 0.30445445 0.19835426 0.26724678 0.10360737 -0.16675761 0.30036718 0.3029311 0.057216424 0.1348036 0.026750332 -0.21944273 0.27605394 -0.027508786 -0.105025336 0.24593537 -0.334531 -0.4182006 0.14671342 0.09377735 0.044000797 0.32854256 0.5241962 0.37655044 -0.32678688 -0.4621239 0.27637574 -0.07215997 0.21710974 -0.24258816 -0.15291815 0.13632134 0.18599994 -0.26682273 0.028090464 0.15406705 0.07135656 0.19908087 -0.23176743 0.24587075 -0.041653637 0.1355499 -0.114189476 -0.17166053 -0.11260521 0.073049076 0.1090454 0.11200973 0.03489671 -0.100990154 0.11166053 0.071303725 -0.06804533 0.051895477 -0.10391851 -0.05904809 0.049712393 -0.06352954 0.002980765 -0.033236846 -0.021585401 0.21346813 -0.052572757 0.116468586 -0.1901954 -0.0270302 0.12815064 0.0127419215 -0.10905581 -0.12791166 0.2967969 0.17406702 0.107525125 0.071622856 0.043400712 0.21192107 0.16500737 -0.1454553 0.020872774 0.056279913 0.09380231 0.10885637 0.16220939 0.17514142 0.23154412 0.49059048 0.22216126 0.044934634 -0.006263281 0.14981416 -0.0462991 0.12607118 0.054171897 -0.018874384 -0.007086965 0.17948377 -0.043587767 -0.07049506 0.11884766 0.14804746 0.009709868 -0.06322949 0.09680551
d11 0.019901797 0.06880273 0.09436096 0.009719681 -0.008209499 0.009832098 0.1308466 -0.05561064 0.18831775 0.110313095 0.04284998 -0.08734054 0.0851013 -0.04003597 -0.10697813 -0.31562075 -0.0711909 0.066610135 -0.19338042 0.18833369 0.229097 -0.21943444 -0.1615621 -0.013695035 0.2896367 -0.43417966 -0.017439345 -0.015755733 -0.11647497 -0.12704839 0.06638464 0.051749524 0.18503696 0.15042657 0.07403955 -0.495444 0.17321211 0.009327594 0.056694318 0.10923659 -0.12777972 -0.0565339 0.099096835 -0.18526107 -0.23076485 0.14337666 -0.0053237216 -0.004572009 0.012767216 0.17984846 -0.012772139 -0.22413667 0.150719 -0.06943984 -0.15021808 -0.05066188 0.025782647 -0.372452 -0.1694018 0.11960839 0.018936861 -0.189931 -0.10335301 0.068856806 -0.08141075 -0.109853305 -0.039324578 0.0545335 0.35839003 0.003475438 -0.06852446 -0.10657437 -0.04386699 -0.05938326 0.08351559 -0.06034165 -1.2913021e-05 0.20931976 -0.010304548 -0.01627911 0.12781057 0.039069742 -0.12612759 -0.16365482 0.0406816 -0.009469735 0.06435755 0.070010945 -0.08376822 -0.011122266 0.16365986 0.29046914 0.035406556 -0.11366951 0.0059674163 -0.19504413 0.19110577 0.0014728886 -0.09716758 -0.032456014 -0.2367561 -0.022456989 0.1402071 -0.031117657 -0.16318627 0.04417987 -0.061276253 0.08694457 -0.1283571 -0.08382341 0.1156056 -0.12345122 0.10887558 0.050354514 0.012961443 -0.24172091 -0.15217957 -0.098908015 -0.0072359033 0.15077034 -0.22604442 -0.1822517 0.16679491 -0.03195171 0.053017255 0.058168977 0.01175555 0.23317161
d12 0.11874318 0.12323551 0.15143745 0.032416206 -0.0057489164 -0.021914162 0.16207439 -0.038527835 0.19289725 0.06866719 0.051269792 -0.05252527 0.06056113 -0.068161964 -0.12289154 -0.33553976 -0.055086866 0.08076283 -0.22460836 0.13207954 0.18656117 -0.13837864 -0.17813608 -0.026415234 0.18606386 -0.45244342 0.026738225 -0.008999149 -0.12152466 -0.08884588 0.1304363 0.059062827 0.23702687 0.025492454 0.1022545 -0.4493623 0.19013396 0.035371743 0.08534407 0.086907715 -0.06058176 -0.05826743 -0.006665352 -0.19368877 -0.30446702 0.12141002 -0.020681845 -0.03440573 0.051692437 0.16371071 -0.01818509 -0.12875807 0.129306 -0.025898969 -0.1618365 -0.061923195 0.006027411 -0.38243687 -0.17336689 0.13457131 0.047959764 -0.14410724 -0.0657714 0.048734967 -0.09030157 -0.0969098 -0.04873538 0.06783582 0.39086786 0.010636528 -0.05768161 -0.107965 -0.027290381 -0.09021979 0.12114342 -0.046061434 0.01031802 0.19121234 0.014794747 -0.04159585 0.13245916 0.035900228 -0.12673451 -0.16650964 0.047291327 -0.022437835 0.07316381 0.04410152 -0.06605021 0.018927965 0.20279424 0.27489248 0.051787257 -0.053566203 -0.044080302 -0.21119078 0.17300686 0.00504346 -0.08442295 -0.017262027 -0.25284615 -0.037226405 0.14631179 -0.047853194 -0.13972166 0.048733428 -0.064878374 0.09459557 -0.12752628 -0.07396555 0.11801499 -0.11970222 0.092272714 0.050896198 0.017678408 -0.23763919 -0.1395163 -0.0936205 0.016084313 0.15846609 -0.1951592 -0.16803905 0.1590257 -0.048410572 0.068425 0.06236133 0.0019245128 0.2121599
d13 -0.17033526 0.15824708 -0.031257264 -0.2337014 -0.018271703 -0.03862486 -0.0813614 -0.11201796 -0.065652095 0.018702094 -0.10748471 -0.027337639 -0.23714952 0.047620695 -0.0358433 -0.22789901 -0.1722696 -0.20060265 0.06629445 -0.05750658 -0.11466066 -0.2061816 0.022765476 -0.12840307 -0.06004534 -0.291513 -0.04024837 -0.1984635 -0.02631981 -0.03816568 -0.2083981 -0.011545094 0.07314537 -0.23035744 -0.14818923 -0.08006712 -0.023813004 -0.04917575 -0.17773025 -0.17070648 -0.13507834 0.014844702 -0.07315672 0.0645626 -0.09320918 -0.10769964 0.086230725 -0.41091904 -0.15740773 -0.07635843 -0.10972946 -0.18996726 0.059096355 -0.07018794 -0.35713613 -0.09729254 0.017047185 -0.14358997 -0.019214056 -0.14859498 -0.28196973 0.096053734 -0.15775739 0.005397898 -0.27050868 -0.024916708 -0.056057774 -0.014987709 -0.2192533 0.042342983 -0.087445505 -0.04224236 -0.05810094 -0.12454115 -0.05816692 -0.15183933 -0.082341194 -0.3282423 -0.055605695 -0.13192216 -0.11112312 -0.052676626 -0.33472934 0.05098777 -0.074738875 0.06461756 -0.22496225 -0.1889062 -0.15704302 -0.02517718 -0.14379695 -0.2449557 -0.009765787 0.023038922 -0.01772473 0.038789414 -0.17739236 -0.16859458 0.07182441 -0.19931833 -0.023067698 -0.049057536 0.018413791 -0.16229586 -0.11476277 0.022270175 -0.15530822 -0.22526284 -0.1278815 -0.15696938 -0.24558006 -0.14798462 -0.0915623 -0.17847845 -0.045415435 -0.082565196 0.038290806 -0.19172326 -0.101276435 -0.06430394 -0.044236954 -0.10890034 -0.10503358 -0.040659133 -0.06549596 -0.18868971 -0.016336372 -0.11403511
d14 -0.07352334 -0.103416756 -0.09656229 -0.036945935 0.076846056 0.049596798 -0.1781658 0.09167749 0.024268683 0.008604697 -0.21620765 0.31667978 -0.03999536 -0.022587597 -0.045360897 0.04551327 -0.11669885 0.025206663 0.18812816 -0.26667905 -0.11270178 -0.068463296 -0.020782014 -0.033228997 -0.17257689 -0.30705702 -0.05784567 -0.18265153 -0.09445163 -0.012847795 0.16236715 0.0051359627 0.034265887 0.0018212865 -0.08512674 0.21307753 -0.031207584 -0.13711146 -0.07786824 -0.03729798 -0.23061858 -0.03487812 -0.12269405 -0.17733522 0.10640305 -0.042429756 -0.16403659 -0.2017144 0.021441137 0.05207101 -0.00491492 -0.011983899 0.02509438 -0.089867935 -0.4648278 -0.049420644 -0.04146954 -0.15200883 0.040397342 -0.19490376 -0.21036622 0.10685804 -0.11373797 0.08647141 -0.18499756 -0.16032705 -0.017695999 0.07239611 0.23224309 0.05258499 0.019917414 -0.017846616 -0.056895893 -0.23300368 -0.04508224 -0.052239094 0.047700305 -0.023879785 -0.088947386 -0.230878 -0.045755345 -0.052813336 -0.022733744 -0.11613116 -0.03739459 0.1281495 -0.16243146 -0.2588688 -0.25661004 -0.00045220804 0.14953654 -0.316671 -0.03570929 0.041954692 -0.27298433 -0.026845245 -0.17021285 -0.12224677 0.10321254 -0.06102439 -0.22002149 -0.1586064 0.09371458 -0.23007835 0.14302638 -0.07786786 -0.19262469 -0.032167524 0.01757835 -0.062928885 -0.2265417 -0.12002479 -0.42646942 -0.112375624 -0.10530616 -0.20911697 -0.021787625 -0.0910775 -0.024967857 -0.1823952 0.10971024 -0.14152473 -0.10473935 -0.06825249 -0.09006334 -0.15039913 -0.0054655336 -0.32439455
d15 -0.11346463 0.054449987 -0.2933072 0.031495642 -0.28565535 -0.17341481 -0.04171085 -0.10442358 -0.17999156 0.08599294 -0.028899338 -0.30605942 -0.1069589 -0.004414449 -0.08385012 -0.25192395 -0.17788883 0.027560752 -0.17042321 0.24206802 0.20165268 -0.2658186 -0.3575333 0.16630682 -0.15092202 -0.053025626 -0.1975148 -0.21412617 -0.14281544 -0.30265614 0.035399478 -0.1466796 0.10931312 0.024131246 -0.012712068 -0.089999564 0.19156337 -0.066814885 0.0726421 0.0627933 -0.2823615 -0.30293757 0.00474395 -0.042334467 0.14732449 0.04512315 -0.24822131 0.08165979 -0.21522751 0.17236996 0.09328843 -0.32338193 -0.019618794 0.1991116 0.08883317 -0.0479631 -0.27974692 0.25307623 0.22954948 -0.076801226 0.097318694 -0.3833776 0.043003734 -0.06978428 -0.31199622 0.053120952 -0.14767922 0.0244224 0.08188051 0.17312205 0.03976681 -0.18174651 0.028832246 -0.083458826 0.032496955 -0.18754476 -0.18364479 0.09299798 0.07486735 0.12233353 -0.23278974 -0.15986498 0.13594571 0.037811484 -0.01636999 -0.0063039116 -0.19621162 0.08908486 -0.18341269 0.0222982 -0.11491702 0.049199313 0.013178953 0.12679194 0.10777064 -0.009913248 0.04038827 0.0060788216 -0.012207086 -0.05316273 -0.3213403 -0.31781814 -0.14055237 0.24762677 -0.299981 -0.02939182 -0.07495245 -0.40890154 0.041711997 -0.2145894 -0.21652842 -0.13832156 -0.0014795852 -0.045924168 -0.09857289 -0.27604496 0.16796176 0.15866452 0.14066873 0.027411913 -0.093060225 0.3640057 0.077240504 -0.2509359 -0.13594507 -0.026306773 -0.19934191 -0.3304957
d16 0.5162138 -0.017412852 0.16909729 0.20483065 0.069422945 -0.055202994 0.19784074 0.072654076 0.12317233 -0.08500802 -0.044852518 0.1437182 0.3102978 0.10822804 0.015302151 -0.06694245 0.15246382 0.19870889 -0.5915206 -0.13032205 0.19417058 0.07850499 0.29304036 0.059548035 -0.082920976 -0.13039944 0.07607151 0.16056637 0.04663245 -0.08484587 0.22867303 0.20221557 0.26687315 -0.31820902 -0.13858101 -0.17051207 0.056887347 -0.08608314 0.4340583 -0.014012491 0.14657326 -0.20322014 -0.16205117 -0.23478755 0.32041517 0.03332985 -0.0612095 0.020930884 0.1615567 -0.2256269 -0.050983734 -0.030437503 -0.3286197 0.088918306 0.13426529 -0.072624475 0.17832254 -0.122211404 -0.010730196 0.15142852 0.2538437 0.37411422 -0.46157214 -0.19680499 -0.0009367397 -0.084983766 0.033291884 -0.25443506 0.29911387 -0.30783635 0.06338915 -0.100644074 0.029739978 -0.12140368 -0.124927685 -0.028384935 0.16428459 -0.04462208 -0.013564867 0.019142915 0.071968526 -0.041030347 0.036461834 -0.06705505 0.026974032 0.047529615 0.17821385 -0.08922036 -0.15652885 -0.1502304 0.41881934 0.026225522 -0.0074676797 0.15101734 -0.16198161 0.26871076 0.013091853 0.09357673 -0.049099125 0.061778303 -0.12560305 0.046079002 0.06861252 -0.07606568 -0.014394916 0.07462566 -0.10180745 0.18616581 0.01576545 0.17458136 0.36921614 0.09113025 0.14816183 0.16305503 0.1895345 -0.011444119 -0.08583556 -0.15419056 0.08853987 0.013567061 -0.053502325 -0.11734478 0.07195316 0.06529305 0.23496291 0.10237391 -0.0017707465 0.024732016
d17 0.19918174 0.07322982 0.1362047 -0.35228744 -0.16705047 -0.37458745 0.013438849 0.021715503 -0.16632585 0.20389645 -0.36675772 0.043039095 -0.68808895 -0.06279499 0.15606906 -0.023161845 -0.13896194 -0.12449763 -0.011510975 -0.050185602 -0.20999297 -0.20229241 0.42398262 0.017448233 -0.06956412 0.04741087 -0.0866482 0.02412899 0.27156737 -0.35054252 0.31889322 -0.08061514 -0.013328435 0.27991498 0.12156427 0.03818959 0.026926726 -0.28031182 0.4998565 -0.03489339 0.085057415 0.28341168 0.2996589 0.00051183 0.29783353 -0.030170944 0.15266736 0.22172198 -0.48059642 -0.09544705 0.25681528 -0.20492618 0.24766828 0.27101043 0.15669377 -0.2785614 0.08734936 -0.12174289 0.05515448 0.36488968 -0.38193098 0.041385036 0.15418085 0.2386309 0.1611951 -0.15064423 -0.01027475 0.5214127 0.19620222 -0.21216571 0.1236382 -0.04079793 -0.05983166 0.061636034 0.083685465 0.12051434 0.1474727 0.08984677 -0.019108605 0.13238679 0.119893186 -0.022415126 -0.3578534 0.03531823 -0.2274362 0.0014598184 -0.070139095 -0.1528771 -0.28070816 -0.07584488 -0.013456362 -0.16511966 0.08115235 -0.017579548 0.04288495 0.13915588 0.00479017 -0.450383 -0.29613045 -0.042002294 -0.2235916 0.040513232 0.13685925 0.055333678 0.19092648 -0.14055955 -0.11685059 -0.026966572 -0.09849462 0.065152735 -0.5205324 0.02982702 0.29302636 0.048376314 0.26304564 0.06530422 -0.024326295 -0.1619567 0.09857423 0.29782587 0.12850367 0.08187933 -0.0067126923 -0.0014725045 0.051258728 0.11510079 0.31173542 0.04791875
d18 0.07974031 0.023948163 0.10459682 -0.01773331 0.10331254 -0.018007511 -0.07971578 -0.1454442 0.11305565 -0.011734998 -0.047484774 -0.39334655 0.17060697 -0.039986294 -0.11732818 -0.25812876 -0.24422213 0.09607618 -0.20401096 0.122637354 0.042253133 -0.19150692 -0.024685733 0.0034364425 0.19466393 -0.19207482 -0.03395646 -0.16681503 -0.08886133 -0.18353936 0.07095227 -0.12088834 0.14092365 -0.07126151 -0.14100228 -0.4860399 0.048739117 -0.06738329 -0.010744096 0.11674602 -0.055826608 -0.41731802 -0.053200264 -0.17552188 -0.29900616 0.1435387 -0.15127365 0.033244174 0.08538362 0.1728071 0.07577833 -0.31605658 0.08058502 -0.13378298 -0.08127105 -0.098798595 -0.05132908 -0.0050248727 -0.103688255 -0.13684362 -0.031119145 -0.09965893 -0.12796415 0.07005929 -0.112298146 -0.08683588 -0.11508736 0.2423008 0.2779751 -0.009421799 -0.14065418 -0.11145833 -0.06551674 -0.027834823 -0.037653428 -0.07368118 -0.16483437 0.2300988 -0.05994504 -0.048370883 0.15772231 -0.03498535 -0.12331955 -0.24777186 0.0819274 0.076050185 -0.05172732 0.029369215 -0.17894968 0.0050583654 0.12608005 0.14165978 -0.018242236 -0.2934727 0.040210783 -0.21140715 0.22949983 -0.12977861 -0.13237275 -0.0036742869 -0.1089392 -0.031841207 0.04861929 -0.038308013 -0.0134063205 0.007022425 -0.055915218 0.03448505 -0.11656071 -0.16874401 -0.08407286 -0.20285806 -0.03049816 0.0047902204 0.022613496 -0.19587998 -0.17934354 -0.046125066 0.009143512 0.21196246 -0.23307945 -0.19435662 0.20082512 -0.06566893 0.110348515 0.036602527 0.013802862 0.19447902
d19 -0.12620397 -0.044379037 0.13114569 -0.027158424 0.13148831 0.16214003 -0.09201608 0.18527782 0.34018385 0.15929535 -0.10533909 0.21617219 0.16545938 -0.064586885 -0.19151537 0.074817955 0.06994784 0.033030685 0.37123224 -0.39483908 -0.084329285 0.103749774 0.23373607 -0.1049398 0.028735148 -0.16435961 0.098544806 -0.1672854 -0.04182059 0.19294241 -0.17905442 0.05298926 0.013717966 -0.11356091 0.17872186 0.24124552 0.026996376 0.024881601 -0.08663657 0.024336882 -0.18618123 -0.010260386 -0.19293903 0.08873735 -0.03186767 -0.06661844 -0.12122096 -0.13963158 0.094424404 0.29040205 0.11643343 0.27637398 -0.028056141 0.07584399 -0.1461691 -0.07856728 0.043630585 -0.094126344 -0.063928895 -0.44489756 -0.03911376 0.12095068 0.16418453 0.08084725 -0.01656238 -0.280022 0.0030832323 -0.14121404 0.016919473 -0.18256502 -0.016145073 -0.018013401 0.09964978 0.018861787 -0.111035794 0.07004257 -0.004526447 -0.14879404 -0.053898357 -0.22695646 0.041025806 0.048576508 -0.0029395653 -0.062149473 -0.013326 0.11366659 0.05438902 0.0683476 -0.04735418 0.097371206 0.024926232 -0.33163518 0.07520183 0.008181341 0.06283092 0.003207714 0.022611147 0.032286502 0.13878575 0.018897872 0.0701676 0.15009372 -0.04746977 0.22293009 0.0044696983 -0.010727533 0.111347236 0.04821977 -0.12435072 0.12410984 0.11916912 0.061620403 -0.16719268 -0.015964475 -0.019494455 0.034353282 0.08593967 -0.08484361 0.030511752 -0.07466383 0.05665384 -0.15372638 -0.05359063 0.0633029 0.104473725 -0.033395335 -0.092604026 -0.17837356
d20 0.010605833 -0.165493 0.2556128 -0.06946873 0.058024306 0.13437079 -0.09131088 0.1723835 0.3580475 -0.13533728 -0.14084622 0.15979299 0.029442288 -0.018015904 -0.20859636 0.043262094 -0.049714804 0.12909184 0.35805136 -0.333491 -0.25903878 0.09609979 0.15451664 -0.09663904 0.16063228 -0.22344442 0.09360404 -0.1940761 0.18733312 0.16600208 -0.1510679 0.06962552 -0.1801037 -0.11481708 0.1874929 0.15183355 0.059442762 -0.027044816 -0.103485174 -0.120534375 0.02349926 -0.18970743 -0.108303666 0.13149484 0.15951233 -0.026319303 -0.27122664 0.26225886 -0.073966205 0.14964812 0.056269087 0.19786862 0.002209206 0.21934478 -0.19494708 -0.06769062 0.080967866 0.048242606 1.4899519e-05 -0.20833714 -0.025072029 0.25968704 0.21352644 0.082503356 0.02696409 -0.5137567 0.062047116 0.07642696 0.0759125 -0.008122083 -0.044412717 0.013923352 0.078579955 -0.040896222 -0.12178186 0.14440423 0.01898177 0.07193379 -0.08679778 -0.18029591 0.051820077 0.023932248 0.21674092 -0.00016732878 -0.15226659 0.17999347 0.06821464 0.19589409 0.103796735 -0.022728145 0.03864662 -0.12237637 0.08530046 0.024522237 0.066841364 0.047597304 -0.056007057 0.07508009 0.022767609 -0.03606301 0.051484175 0.23985794 -0.082577355 0.058886148 0.14086479 -0.058208603 0.0060852217 0.08028698 -0.11285288 0.14547098 0.26149684 0.04871894 0.09681219 0.092373714 -0.06574168 -0.22133854 0.046744086 0.06473594 0.02317863 0.022464234 0.13724229 -0.08975505 -0.12333492 0.068292685 0.07481676 -0.070878275 -0.09778521 -0.20878537
d21 -0.005429452 0.22728862 -0.0755527 -0.19050126 -0.012191235 -0.07431698 -0.2851268 0.022889119 -0.18356459 0.19663121 -0.10621324 -0.071163416 -0.41404027 -0.21798874 -0.097170725 0.062387377 -0.15499291 -0.030401016 -0.08524236 0.067901194 -0.048602235 -0.18440033 -0.17681211 -0.1561577 -0.28360477 -0.12696137 -0.11133132 -0.091233656 0.010485911 -0.05430637 0.33411047 -0.085776575 -0.20132154 -0.22669706 -0.29675674 -0.0618249 -0.27033693 -0.038410988 0.03661774 -0.35168982 0.080693685 0.109672815 0.03278755 -0.0049872366 0.06514999 -0.11950802 -0.1872878 -0.41681704 -0.016480157 -0.09846276 0.007843861 -0.28544647 0.08145698 -0.12216624 0.024540933 -0.1066601 -0.11391871 -0.10253146 0.10499097 -0.06467427 -0.22545399 -0.07339188 -0.3524539 -0.03152169 0.04226306 0.010829343 -0.1508039 -0.067259155 -0.10145674 -0.07664918 0.20295946 -0.0062142634 0.059861388 0.009828486 -0.034673527 -0.047683824 -0.0084330505 0.04412862 -0.1879414 -0.10976495 -0.24405088 -0.10566815 -0.08481646 -0.16343036 0.13289644 -0.1993065 -0.17164841 0.09688962 0.27094787 0.09256383 0.031957082 -0.1273841 -0.06833998 -0.22145209 -0.058665473 -0.20421486 0.008488287 -0.1269447 0.28879884 -0.0270737 -0.2541365 -0.257411 0.005177895 -0.02752916 -0.21892467 -0.1844999 -0.20564657 -0.083830476 0.07451871 -0.019545961 -0.32191873 -0.18657814 0.0004967959 0.022513233 -0.117644615 -0.051307783 -0.12464688 -0.17424351 -0.02160986 -0.064946264 -0.07009272 0.21679586 -0.11058631 -0.25762144 -0.22382398 0.17935175 0.03692107 -0.013756359
d22 0.494267 0.18605876 0.130174 0.15601553 -0.06570224 -0.29425037 0.12890033 -0.11415252 -0.11198282 -0.3704277 0.033954468 -0.1466739 0.024235208 -0.2637705 -0.10126509 -0.007944609 -0.25579926 0.053734735 -0.25821283 0.05084902 0.060434192 0.021681847 -0.048854724 0.038327973 0.13278663 -0.24621958 -0.3181548 -0.20990212 -0.051058453 0.13215004 0.039160613 -0.34908494 -0.14469948 0.048212867 0.06729082 0.07476155 0.19091968 -0.00297752 0.2080873 -0.0046075396 -0.27500156 0.42002958 0.534126 -0.18749452 -0.28921264 0.2312475 -0.23059878 0.20879748 -0.12698746 0.24858749 0.008950578 0.32184985 -0.11642488 0.25798768 0.05180749 -0.048043508 0.042103287 0.45918623 0.064444885 0.13571443 0.14415443 0.21874496 0.12774357 0.030990466 0.12093161 -0.08377715 -0.06534819 0.16244455 -0.027403537 0.41378298 0.30063212 0.124739945 -0.098765336 0.04174726 0.1677921 0.26215804 0.08150574 0.085851945 0.09043041 -0.03670652 0.0066290577 -0.064274706 -0.2939794 0.066290766 -0.03954609 -0.017672483 -0.11572831 -0.00025046256 -0.096826494 0.18654016 -0.05639184 -0.24539961 0.09748315 0.018907214 -0.046481825 -0.025974981 -0.03324542 -0.06632354 -0.19122328 -0.09886497 -0.033989694 0.00565525 0.004646723 -0.000564146 0.29098672 -0.093292646 -0.09043132 -0.28447813 0.13384163 -0.19827269 -0.27617627 -0.0749735 0.020890413 -0.06863413 0.007722178 0.019994522 -0.01405355 -0.0002269546 0.011689564 0.16911633 0.0041269814 0.0494746 -0.045828618 0.05014968 0.070909284 -0.027596515 0.1696937 -0.13213311
d23 -0.053491212 0.24990311 -0.056509838 -0.13323249 -0.031951286 -0.09643054 0.021722341 0.08626867 0.076077744 0.3363398 -0.090618216 0.07658704 -0.21452373 -0.1715072 -0.09506148 -0.014684744 0.012777829 0.063134745 -0.08392952 0.08578954 0.14412972 -0.20772047 -0.29487827 -0.06616501 -0.12634349 -0.2557998 -0.042783346 0.052609988 -0.046079546 0.019934136 0.21442026 0.053634197 0.0019170161 0.0077436296 -0.047851603 -0.083028235 0.12916806 0.07396031 0.1742405 -0.11202566 -0.0046267654 0.2612267 0.0622688 -0.028284574 0.03895646 -0.006451831 0.084106 -0.3094799 -0.033908103 0.070112 -0.04124773 -0.079428196 0.14149344 0.0282746 -0.021012168 -0.15827282 0.03317461 -0.28895822 -0.057172295 0.16249816 0.0100946175 -0.15570852 -0.27513304 -0.0365358 0.14388093 -0.058980875 -0.010163948 -0.12145672 -0.018255062 0.09745924 0.005429 -0.046501596 -0.068909064 -0.10952661 0.13235302 0.07110996 -0.013763073 -0.07528616 -0.048933186 -0.09360715 -0.22242065 -0.070084415 0.066518344 -0.049953543 0.014741742 -0.01318579 0.018484276 0.13958609 0.2694356 -0.12264466 0.12640472 -0.08770856 0.03700941 -0.13691904 0.024253486 -0.09065461 0.043864705 -0.016553365 0.17068255 -0.004831819 -0.253743 0.02511654 0.0058507314 0.060456317 -0.046209008 0.039187174 -0.015572918 0.074209996 0.01177516 0.11422181 -0.021550458 0.019364947 0.038399834 0.093240395 0.0041459724 0.0809168 -0.2315224 -0.11141993 -0.10696118 -0.1675421 -0.034973685 0.18331398 -0.20457558 -0.25241065 -0.036001142 0.09090271 -0.04770759 0.06801172
d24 -0.16616511 -0.08104238 -0.24145435 -0.028725246 0.02508239 0.08259754 -0.094872005 -0.13507682 -0.119393095 0.0066877524 -0.16368264 0.099308 -0.030778086 0.07556653 -0.16374913 -0.18557663 -0.13067707 -0.02382045 0.16148366 -0.14759946 -0.049704447 -0.074284926 -0.047472037 -0.06168533 -0.14603703 -0.17275022 -0.057380244 -0.14942436 -0.034960553 -0.07833759 -0.09873991 -0.06690961 -0.022117505 -0.022523586 0.014734922 -0.04405496 0.038030427 -0.09362705 -0.12123192 -0.13619429 -0.30245134 -0.09106996 -0.21308833 -0.003142537 0.0043648994 -0.06606985 -0.04053839 -0.11962282 -0.024369216 -0.023154877 0.045788754 -0.01854276 -0.060948867 -0.16428341 -0.32794088 0.010389089 -0.0013736521 -0.07582032 -0.043157093 -0.18170385 -0.18320495 0.040299173 -0.15663029 0.016632598 -0.31255883 -0.14845137 -0.015269143 -0.03475967 0.031016871 0.13644661 -0.15985973 0.030669304 -0.15713236 -0.12699573 -0.17193723 0.016109053 -0.08722682 -0.11225272 -0.07749605 -0.062262177 0.042878255 -0.08831351 -0.088114075 0.11888652 -0.11158047 0.15412678 -0.10091834 -0.20492148 -0.17888673 -0.082630806 -0.080073245 -0.18370822 -0.004541889 0.11398774 -0.09146693 -0.07545388 -0.11295036 -0.04997727 -0.051388856 -0.22016813 -0.12922186 -0.042089403 0.062409233 -0.15687591 -0.12303532 -0.03346172 -0.21306153 -0.18196936 -0.08472299 -0.094887026 -0.17956968 -0.11159457 0.000106746316 -0.10308744 -0.11036623 -0.07848536 0.020186396 0.0058140852 -0.18576556 -0.13015445 -0.10038945 -0.048857506 -0.029516635 0.013215713 -0.029993182 -0.114178546 -0.12211411 -0.3017084
d25 0.49151078 0.07666992 -0.27332988 0.12010187 -0.16892162 -0.20208569 0.068817616 -0.3011223 -0.14558163 -0.09995751 0.03491316 -0.1340409 -0.28200644 -0.098216094 -0.013287274 -0.15807287 -0.22858118 -0.121880665 -0.26296353 0.12759584 0.25835207 -0.10922021 -0.049999036 0.09068816 0.08253504 -0.30442205 -0.28865597 -0.15740986 -0.18716946 -0.14475654 0.11177382 -0.29901972 0.08970394 0.12979953 0.006703716 0.021324817 0.11175172 -0.10797117 0.07562292 0.05759824 -0.25153345 0.38608587 0.50011754 -0.14385659 -0.19048199 0.15169095 -0.23272525 0.14225465 -0.09779426 0.1501879 0.050824005 0.20967788 -0.18760087 -0.24654141 0.028794985 -0.04888491 -0.16345744 0.50713116 0.26047373 0.011199046 0.2193198 -0.17745735 0.20942806 0.244582 0.018036757 0.06435089 -0.11756549 0.16629931 -0.0003301089 0.40073794 0.37516606 0.037783552 -0.089974985 0.008411109 0.14260083 0.15636548 0.03291391 0.0795517 0.10106636 -0.0047722296 -0.017068733 -0.082716435 -0.31727746 0.108894855 0.0075881225 -0.043359477 -0.23129278 -0.062015027 -0.124248765 0.25644422 -0.046963204 -0.24591917 0.029705962 0.041612525 -0.024453543 -0.04606246 0.072304025 -0.14755914 -0.13503738 -0.040423308 -0.09142322 -0.011224182 0.027836807 0.029988388 0.21205822 0.011503663 -0.113787256 -0.33287138 0.1099369 -0.2689335 -0.37650082 -0.12879759 -0.02146509 -0.16165885 -0.004499233 0.004362702 0.010959616 -0.14138274 0.04082117 0.123180546 -0.016595023 0.08671932 0.025743114 0.019074742 0.05297068 -0.00018934796 0.1939016 -0.2095148
d26 0.50233376 0.11560307 -0.23691557 0.15094821 -0.12830433 -0.22179726 0.10117287 -0.31774333 -0.15425433 -0.09409205 0.023269912 -0.13116154 -0.251983 -0.09848507 0.0252631 -0.1579602 -0.304288 -0.09699145 -0.30416688 0.10064761 0.27414742 -0.12214732 -0.017929997 0.11718738 0.10338175 -0.29583806 -0.27708012 -0.1427191 -0.17491202 -0.11962563 0.13909845 -0.29841423 0.09293685 0.086461805 -0.00022586052 0.06267028 0.13935119 -0.0943447 0.11496647 0.052859794 -0.28414637 0.38028115 0.50448436 -0.15938447 -0.16855751 0.14439371 -0.23164289 0.08718943 -0.049915187 0.25693324 0.022323603 0.19632198 -0.2326173 -0.26407957 -0.014212415 -0.0692365 -0.15568094 0.5294281 0.29837212 0.028968666 0.23832184 -0.15321147 0.17637713 0.24668159 -0.0017000003 0.06838928 -0.12695077 0.18953615 0.0108901635 0.42738697 0.38622633 0.033847764 -0.0807275 -0.020915033 0.14193016 0.164392 0.02879122 0.078776695 0.10639275 -0.004798286 -0.027800534 -0.097122945 -0.3402351 0.1140693 0.035408553 -0.011307074 -0.23368357 -0.080179915 -0.12208985 0.27587414 -0.040932126 -0.28511965 0.04901717 0.059547663 -0.019895332 -0.06766763 0.06810367 -0.14824499 -0.14764532 -0.049258523 -0.08274265 -0.01979471 0.04073734 0.068472005 0.21765845 0.026539892 -0.13207653 -0.35203767 0.10909809 -0.30277336 -0.40471175 -0.13294375 0.0004741492 -0.19713792 -0.015305689 -0.013072077 0.0072228103 -0.14846379 0.042652424 0.11272086 -0.01987395 0.07026275 0.03468074 0.016250473 0.062188465 0.004491172 0.17675735 -0.22173671
d27 0.029237006 -0.0961104 -0.08058668 0.024730982 -0.193483 -0.025817411 0.0041733445 -0.061362963 -0.31648383 -0.12509412 -0.04551256 0.27426 0.3674151 -0.02351129 0.27619746 0.10927838 -0.042395655 0.088713765 0.27307364 -0.023170587 0.06956596 0.050536096 -0.034154747 0.06937972 0.10655898 -0.1552068 -0.16457427 0.070169725 -0.24900688 -0.20243312 0.0473116 -0.058067504 -0.00022272712 0.21470824 -0.016144963 -0.13523126 -0.2648881 -0.3818374 -0.21686174 0.28715065 -0.24367641 0.026837476 0.11458312 0.1657381 0.13317642 -0.1838281 -0.16946064 -0.029945254 -0.13806011 -0.092031844 -0.22403513 -0.37823522 -0.12173212 -0.25267833 0.36136326 0.20959091 -0.09321963 -0.24718869 -0.061346285 0.0028326332 0.0054548513 -0.10968718 0.057674527 -0.033303857 -0.18314 0.15216975 -0.13462923 0.13105331 -0.40635356 -0.0014675616 -0.12189094 0.02369843 -0.019310042 -0.00303649 0.17380258 -0.4156585 -0.04953624 -0.2868559 -0.05803056 0.13935469 -0.056293257 0.19590934 -0.08059434 -0.25708786 0.17777257 -0.03492419 -0.17979759 -0.008645407 0.049665757 0.13120599 -0.028736388 -0.10916415 -0.29618347 0.2493459 0.2864501 0.101939715 -0.1340754 -0.15006542 -0.024057148 0.026918456 0.14352515 -0.15232886 0.07243895 -0.42726755 0.24138832 -0.091575 0.3580794 -0.017486641 0.1504195 -0.10449628 -0.16486302 0.054613814 0.19846061 -0.4449887 -0.17718753 -0.10509892 -0.13335994 -0.05078996 0.04167344 -0.15360194 -0.08329065 -0.10777514 -0.12893544 0.050313476 -0.010424042 -0.1240679 -0.019858386 0.071757585
d28 0.07023406 -0.06359284 -0.121551715 -0.026883062 -0.33525133 -0.055695053 0.025238654 -0.032258675 -0.31495795 -0.13204297 -0.15640363 0.3145389 0.36259744 -0.07662545 0.32935628 0.111897275 -0.021427462 0.037680652 0.30283073 0.00453707 0.058823932 0.10619729 -0.04507638 0.08799778 0.11970148 -0.22508512 -0.19674209 0.082994215 -0.24235237 -0.17463459 0.11105845 -0.084983885 -0.047555473 0.22536202 -0.035907585 -0.13315462 -0.29852414 -0.42121503 -0.23132047 0.31660363 -0.25704437 0.12530868 0.13492465 0.24608117 0.17225698 -0.19828343 -0.19385654 -0.03272319 -0.26081216 -0.09086847 -0.24460152 -0.401019 -0.113601126 -0.27085057 0.37131554 0.22530526 -0.099543855 -0.29282898 -0.019837681 0.063276164 0.046276934 -0.11167965 0.077759944 -0.032864135 -0.2800723 0.13102087 -0.23588942 0.14493084 -0.3194265 0.1401934 -0.110030584 0.05287228 -0.035400525 -0.03345479 0.1240266 -0.47378927 -0.044664282 -0.31705174 -0.13648391 0.121956795 -0.1207201 0.117861174 -0.048169225 -0.33681467 0.09342842 0.0537605 -0.30009827 -0.0028077778 0.08212438 0.15609482 0.086056486 -0.20750932 -0.25780222 0.3290503 0.19556196 0.038539674 -0.12703335 -0.18758115 -0.13080418 -0.04128885 -0.020918593 -0.2502548 0.10973023 -0.44278234 0.15022452 -0.24137911 0.2884855 0.024883945 0.2793413 -0.11914389 -0.26686695 0.0343472 0.27631894 -0.46930665 -0.17129597 -0.0661174 -0.2523976 -0.037769075 0.06635259 -0.16328186 -0.038957153 -0.108853705 -0.13282306 0.042278018 -0.19189894 -0.13509996 -0.03350751 0.09982574
d29 -0.18600236 -0.12811644 -0.16382863 -0.036260594 0.14757231 -0.04408094 -0.023460781 -0.12531419 -0.16770978 -0.02506084 -0.13583913 0.10986681 -0.012491787 0.05017495 0.02463749 0.01280868 -0.21926852 -0.04895986 -0.052051507 -0.07374638 -0.027935607 -0.076682836 0.018307399 0.05611053 0.037767358 -0.111512594 -0.04470831 -0.08510867 -0.20736234 -0.18149814 -0.025679586 0.010104523 0.022113003 0.16369818 -0.07381025 -0.02333448 -0.08269313 -0.27089477 -0.15972501 0.021786604 -0.09693376 -0.029803015 0.019458396 0.014933252 0.09823076 -0.0522382 0.015072898 0.07165077 0.11862971 -0.08395229 -0.0379567 -0.11448206 0.062544204 -0.25276783 0.075356394 -0.07843586 -0.10126062 -0.11182374 -0.069093324 0.08019582 -0.16845834 -0.06470316 -0.12748644 0.036570203 -0.17014502 0.08738199 -0.13019635 0.13739786 -0.18289348 -0.017594406 -0.12449767 -0.035381008 0.018500995 -0.14551447 0.08740615 -0.29869887 -0.0876891 -0.23624954 0.0015440435 -0.013369656 -0.09767536 0.039866358 -0.44778872 -0.1459734 0.26151064 -0.1420368 -0.09891857 -0.037127793 -0.02172458 0.11866586 -0.14449455 -0.12807019 -0.21690775 0.011245787 0.2577294 -0.013791582 -0.12643452 -0.16213877 0.11049569 0.034697425 -0.061490383 -0.13982363 0.03855597 -0.2791119 0.121733956 0.015126217 0.015301677 -0.18107216 0.019607902 -0.2676586 -0.34626135 -0.12526277 -0.07955276 -0.40064126 -0.09325682 -0.15490493 -0.1831864 -0.20930253 0.12838486 -0.02342249 -0.23013139 -0.28549418 -0.16962503 -0.043777898 -0.094735704 0.04615794 -0.0025462965 -0.063839205
d30 -0.17617242 -0.13465202 -0.15387309 0.00930924 0.031865153 -0.01811646 -0.096737705 -0.17286317 -0.20245233 -0.038151827 -0.06433752 0.020888742 0.12347031 0.037855268 0.006786901 -0.033250798 -0.22959274 -0.017188396 0.16529979 0.004966741 -0.0073663597 -0.074424624 0.027654268 0.029235704 0.038100056 -0.156466 -0.09918127 -0.15363368 -0.25007585 -0.24389905 0.006197082 -0.012466649 -0.04405348 0.20869395 -0.016418654 -0.24097939 -0.13007586 -0.28115976 -0.15441163 0.20368378 -0.204325 -0.052358165 -0.005615584 0.045350656 0.11457702 -0.15997273 -0.06639804 -0.024832403 0.026481237 -0.020688482 -0.13349582 -0.3181464 0.017912913 -0.27251226 0.060173005 -0.0064276145 -0.06369098 -0.1646614 -0.0963946 -0.087868474 -0.21158795 -0.14215413 -0.1080403 0.08116951 -0.27444646 0.022910342 -0.10043945 0.09542354 -0.18654409 -0.048793774 -0.17128871 -0.019139199 0.024185214 -0.048474256 -0.055917803 -0.2938553 -0.1241081 -0.17145509 -0.041414868 0.075440526 -0.054226283 0.06493554 -0.39105552 -0.124662526 0.06963577 -0.032024805 -0.13617423 -0.026758803 -0.14620686 0.061309505 -0.091151625 -0.09800378 -0.20271794 0.06534772 0.25464386 0.0642075 -0.11480232 -0.16628547 0.0068182554 0.037775546 -0.020226272 -0.17056127 0.060404286 -0.29480556 0.12758608 -0.041618057 -0.013198417 -0.17882815 0.018145682 -0.27556288 -0.31848422 -0.15806295 -0.013817861 -0.35520622 -0.12157312 -0.17825508 -0.036205616 -0.10086845 0.076723 -0.06654302 -0.23164997 -0.2120496 -0.099335074 -0.011125883 -0.09182102 -0.0026082553 -0.025276504 -0.10241647
d31 0.12665768 0.083026275 0.066963874 -0.254723 -0.17883278 -0.4000493 0.146654 0.039290108 -0.08389085 0.11922371 -0.24575198 0.11535532 -0.6084588 0.0059548826 0.089150585 -0.06324927 -0.09430117 -0.21413974 0.002416896 -0.1134962 -0.17639321 -0.12838714 0.37592036 -0.0864614 -0.040255662 0.012902447 -0.09539223 -0.043653995 0.2937443 0.13220985 0.13146843 -0.09281709 -0.13196579 0.2743653 0.1985926 0.106520355 0.06415281 -0.27605128 0.15423664 -0.066575676 0.044068806 0.35420182 0.384636 0.03687444 0.18815057 -0.16839346 0.38117957 0.11859743 -0.39682105 0.19657077 0.16654237 -0.22615503 -0.089729704 0.22376461 0.101613976 -0.1876334 0.14989379 0.05338608 0.07810394 0.23773919 -0.09403355 -0.116229035 0.29668015 0.21027403 0.19900793 -0.19273636 -0.0092058545 0.42934546 0.2803456 -0.18641984 0.09574012 -0.03433376 -0.06006116 0.06874384 0.085127294 0.11769114 0.081891805 0.095567614 -0.039507624 0.078998715 0.100050196 -0.025557373 -0.22005324 0.040736333 -0.24759907 -0.011277037 -0.040112123 -0.15994653 -0.2146042 -0.07680537 -0.044805422 -0.1483594 0.05883238 -0.05261518 -0.00831698 0.06197512 0.04720058 -0.15640119 -0.31690475 -0.054909285 -0.13133518 0.041167278 0.07936501 0.053158738 0.15859434 -0.15993118 -0.13192683 -0.065107934 -0.08196124 0.07164119 -0.20004874 0.05679745 0.10958535 0.052594937 0.1939144 0.08902629 0.007403089 -0.14239833 0.09162142 0.1707609 0.15269062 -0.01467906 -0.020689396 -0.004800974 0.052523497 0.08743075 0.25547603 0.03153738
d32 -0.14063473 0.21771617 0.11884104 -0.10346996 0.04354113 -0.17461407 0.2772499 0.12831332 0.038748406 -0.027454913 -0.007180794 0.101043954 0.2638578 0.02892752 -0.011672135 -0.099124596 0.14431982 0.00033983926 0.03151654 0.016024746 0.037334513 0.2317628 0.22297421 -0.09174864 0.035407636 -0.13178161 -0.0275458 -0.050566558 0.16552038 0.2351778 -0.26234987 0.08569006 0.004827719 -0.08756288 0.20168315 0.07113686 0.26289812 0.06137872 0.033906896 -0.012590804 -0.27736458 0.35610315 0.25688076 0.10436162 -0.015933357 0.018395323 0.35645097 -0.52726746 -0.05708582 0.261935 -0.25589392 -0.06781219 -0.12363411 0.1619454 -0.37087595 0.0018505043 0.1952295 -0.3306635 -0.27061397 0.14229795 0.09294832 0.19930384 0.120817214 -0.029899536 0.010012966 -0.19474404 0.086761065 -0.2594601 0.17595795 -0.19098504 0.049540836 -0.0710584 -0.041989118 0.040895443 -0.015074871 0.09253437 0.14659806 -0.048126522 -0.031848498 -0.25558954 -0.013099535 0.050291486 -0.06642337 -0.070073895 0.05678895 0.0527213 0.1206095 0.07591181 -0.07691992 -0.2027765 0.035560973 -0.060486022 0.03996744 -0.0012990017 -0.10413273 -0.07571484 0.07960565 0.12254534 0.032664064 -0.144338 0.030607454 0.12828924 0.03541109 0.0003256298 0.030673139 0.12195731 0.005447645 0.16352454 -0.13684824 0.11917861 0.32100943 0.09133359 0.045150366 0.12436322 0.084114626 0.061781738 0.05441641 -0.009950548 -0.090362534 -0.10869782 0.14975211 -0.15319735 -0.10845505 0.073435605 0.0998217 0.007375167 -0.0888829 -0.056842726
d33 -0.1258544 0.2442119 0.15674612 -0.09714814 -0.028615529 -0.22444145 0.26164 0.1467359 0.058384426 -0.031679895 0.012442992 0.09295066 0.25686854 0.039838642 0.04059298 -0.13994874 0.14644161 0.013327901 0.10953534 -0.115017034 0.020406514 0.1914622 0.2789738 -0.11096208 0.013260082 0.030848863 -0.016487638 -0.07997752 0.10404293 0.27620408 -0.2720847 0.07432765 -0.18739766 -0.22004572 0.20677625 0.06537569 0.2282219 0.047055908 -0.006162315 0.03344931 -0.12821296 0.34342924 0.15685853 0.0885967 -0.08239415 -0.027987624 0.38564402 -0.5499744 -0.08098058 0.36234984 -0.2836111 -0.008527963 -0.13147347 0.13615665 -0.31939942 0.050284535 0.18625781 -0.33300138 -0.21186902 0.18839736 0.091005065 0.1996938 0.14214532 -0.05268681 0.029693428 -0.20753893 0.08126517 -0.22792524 0.1530449 -0.19120963 0.036917258 -0.069196545 -0.0178806 0.040244367 -0.0031240308 0.09617025 0.13934003 -0.04724851 -0.04296774 -0.23677012 -0.005393189 0.05202787 -0.062393744 -0.08278228 0.035594203 0.040570177 0.11479155 0.09306804 -0.062795945 -0.18579711 0.027120993 -0.027944086 0.041314986 -0.0112549225 -0.09464554 -0.06367145 0.08303239 0.12105118 0.015670137 -0.11845718 0.0036604602 0.12893829 0.010992798 -0.0119601805 0.035128247 0.11724231 0.024540354 0.1679993 -0.11117804 0.1181957 0.305426 0.09739099 0.032194164 0.11074051 0.08311512 0.05157633 0.052174587 0.011443266 -0.06777963 -0.08257559 0.14150068 -0.14857002 -0.11593351 0.05754195 0.094093286 0.009942738 -0.0904167 -0.037054513
d34 0.20196477 0.2931873 0.17501996 -0.10799693 0.029460425 -0.03600941 0.097839125 0.12660974 0.09046964 -0.14435773 -0.131458 -0.030927835 -0.020790879 -0.22949141 -0.136505 0.2669402 -0.09950148 0.24984787 0.051774055 -0.18008842 -0.30900112 -0.000711001 0.050977286 -0.06703888 -0.4390693 -0.06250079 -0.0007593267 -0.017042246 0.05429752 0.13791601 0.29210085 0.032766625 -0.0859265 -0.26963437 -0.2782517 0.16058749 -0.0993525 0.060002904 0.34489897 -0.12991765 0.048505787 0.041156255 -0.11500039 -0.06934238 -0.034130696 0.09696184 -0.17161304 -0.006739483 0.0020879244 0.19784136 0.06442651 0.08221798 0.07015802 0.21285182 0.047834624 -0.13454413 0.07077374 -0.057444144 0.0058258325 -0.3172907 -0.004912996 0.24317515 -0.09624297 -0.13630512 0.11191072 -0.11245184 -0.0054435986 -0.056632396 0.011723127 -0.115701176 -0.02203873 -0.025364421 -0.10266796 -0.11844983 0.049609967 0.08586158 -0.006961073 -0.04808301 -0.08748259 -0.12693113 -0.07414471 -0.07123205 0.1664485 -0.13525048 0.0174742 0.013638664 0.03108477 -0.05887945 0.12627307 -0.08884148 0.079779625 -0.118757434 0.05985653 -0.048753988 -0.11677419 -0.0050570695 -5.6693243e-05 -0.02671158 0.12395338 0.027612612 -0.20108768 -0.026586192 -0.030228347 -0.04246743 0.09100442 -0.021235837 0.019360885 0.062188294 0.022366961 0.14133976 0.15388396 0.04820965 -0.14700423 0.09920846 -0.0006710222 0.10006338 -0.0465486 0.018046295 -0.029742781 -0.028871408 0.15473172 0.15471387 -0.117002614 -0.030204864 -0.016671829 -0.026669916 -0.01621945 -0.14632383
d35 0.032251988 0.019877035 0.23825872 0.04911739 -0.048705414 0.061702542 0.12870513 0.17641814 -0.045107264 -0.12853672 0.0212888 0.0631597 0.3096438 0.10052566 0.09103232 0.010663678 0.38426042 0.30631918 0.11444795 0.031904053 0.073240586 0.23896614 0.2160431 -0.08417051 0.016514778 0.07397257 0.12474142 0.17491561 0.32279006 0.16895649 -0.36076996 0.025276802 0.11948995 -0.16000015 0.07480412 0.032861978 0.34293652 0.1887936 0.121495925 -0.01614183 0.16684482 -0.02606635 -0.28162757 0.24121009 -0.0065431916 0.029879482 -0.117762394 -0.32626498 0.058559034 -0.23483595 -0.1585435 0.06236532 -0.16056421 0.25528497 -0.3838523 0.11175748 0.27941883 -0.010690689 -0.2587052 0.17501356 0.03836819 0.30375004 0.11373454 -0.20244288 -0.21873702 -0.18386067 0.103609644 -0.15737063 0.28521544 -0.22200964 0.046380956 -0.054929953 -0.21286657 -0.019212142 -0.1451775 0.11210695 0.08710855 0.11948729 -0.12829912 0.057834987 0.046063595 0.024087453 0.039190523 0.46968794 -0.1662326 0.10366849 0.14120004 -0.119954884 -0.06668895 -0.18518454 -0.10769232 -0.08397425 0.081169315 0.14511704 -0.119429655 0.13712575 0.090385534 0.20507692 -0.3235864 -0.33658484 0.0011542914 0.2312561 -0.048924856 -0.15365374 -0.09253363 0.065007165 -0.03706285 0.06791944 -0.25367022 0.1657878 0.39058256 0.13960837 0.39347658 0.2562466 0.052668575 0.031478934 0.0804448 0.024217933 -0.24714631 -0.09666522 0.1537726 -0.016494088 0.0043330253 0.16013016 0.118276775 0.027231721 -0.17681098 -0.18581249
d36 0.018847873 0.20988542 -0.013082649 -0.080422126 -0.013454493 -0.0058429777 -0.12403164 0.15613113 0.08504065 -0.25506872 -0.15729494 -0.023679862 -0.3168147 -0.017223962 0.026775924 0.45944327 -0.0926375 0.040379286 0.015204601 -0.23284262 -0.1619265 -0.16489373 -0.08125021 -0.10145452 -0.3280801 -0.38581488 -0.089821495 -0.18258739 -0.07406452 -0.07294393 0.29509312 -0.034775604 0.05852092 -0.3085507 -0.29114547 0.23778473 -0.022931278 -0.15832537 -0.019829597 -0.19795385 -0.1372531 -0.09764218 -0.054612055 -0.20921184 -0.08622389 0.00868058 -0.12308857 -0.2040054 0.057173308 -0.10999383 0.026281513 -0.056828715 0.024471804 0.17162667 -0.42422652 -0.1384766 0.0015288332 -0.14363544 0.059227362 -0.3244947 -0.21001494 0.2672642 -0.18071029 -0.059308983 -0.26926863 -0.14223301 -0.071185246 0.031674877 0.15020783 0.029616514 0.11381658 -0.011104057 -0.111054495 -0.25359908 -0.12282451 -0.021535326 0.11184962 -0.001275131 -0.09125277 -0.22911091 -0.090462044 -0.10713984 -0.045920823 -0.06572353 0.0032260143 0.095389396 -0.19260891 -0.22578195 -0.2406492 -0.009098033 0.14448999 -0.23656917 0.011822958 0.06694347 -0.250392 -0.0014260879 -0.12079332 -0.10476086 0.06946205 -0.091052786 -0.23385432 -0.15172817 0.109608844 -0.14424415 0.07939636 -0.08350362 -0.22286052 -0.051476732 -0.003384625 -0.06440843 -0.25692382 -0.10337997 -0.33391768 -0.08008368 -0.14009973 -0.08325643 -0.09001762 -0.05786746 -0.066688605 -0.07800496 0.09577679 -0.05039711 -0.11095513 -0.009315445 -0.052130587 -0.12951335 -0.0059275585 -0.206543
d37 -0.012744226 0.10545153 0.039472006 -0.112577155 0.12049399 0.037759684 -0.25855252 0.13429303 0.1558041 0.22418621 -0.070841566 0.2557462 0.06045351 -0.10401471 -0.090092964 0.043094892 -0.06110509 0.13895051 0.20372826 -0.21894191 -0.10499325 0.055549793 0.07800667 -0.06525307 -0.101765275 0.1330267 0.041018274 -0.01757167 0.09309165 0.14728014 0.17334647 0.063122414 -0.16067003 -0.11970639 -0.015379021 0.15039821 -0.037635062 0.1073606 0.15963055 -0.22429785 0.015114436 0.04129335 -0.109366834 0.07389658 0.05845115 -0.0037914224 -0.29504308 -0.18250662 0.04699292 0.2268002 0.079173334 -0.090552084 -0.0021587154 0.039504986 -0.025612619 -0.021949818 0.049348567 0.0048674056 0.01379907 -0.12671687 -0.035009187 0.11851555 0.020249376 0.045998607 0.12174944 -0.35672444 0.03987306 -0.056799527 0.028333876 -0.02508084 -0.011860776 -0.0015641951 0.047650423 -0.13622367 0.020821385 0.09506913 0.025617046 -0.05134509 -0.034238372 -0.24610597 -0.11048218 -0.040895414 0.19212455 -0.08783715 -0.036782756 0.082694225 0.040573772 0.025830537 0.2145795 -0.034734022 0.06676579 -0.27141494 0.044659626 -6.0691407e-05 -0.02233728 0.034495898 -0.008736661 0.005556633 0.18236567 0.07393491 -0.08218484 0.13689119 -0.05328806 -0.067963906 0.17090693 0.022366036 0.062044967 0.079655275 -0.016350001 0.12424167 0.19547072 0.040102348 -0.09477888 0.05070309 -0.0077802814 -0.1387214 -0.031157523 0.010468916 -0.003864434 -0.13601096 0.17770258 0.042879626 -0.14216276 -0.089568295 0.0024086467 -0.0308748 -0.11883966 -0.25580484
d38 -0.043498 0.07151119 0.021399673 -0.1845444 0.07914139 -0.005760811 -0.2745346 0.1430045 0.08069396 0.27501723 -0.095100366 0.2633811 0.032126006 -0.07768888 -0.08745732 0.009375395 -0.09522366 0.13833913 0.249586 -0.20804204 -0.11213462 0.086069986 0.05116011 -0.089647464 -0.09444412 0.058574658 0.017406275 -0.04181544 0.12994689 0.15117356 0.18074816 0.054358225 -0.1143792 -0.111043416 0.0023110518 0.16925913 0.020779384 0.096936814 0.113684125 -0.16307023 -0.008678495 0.10031694 -0.11152948 0.081377394 0.060839135 -0.021296695 -0.25564906 -0.21181382 -0.02518685 0.24609058 -0.03161761 -0.18419093 0.0118168965 0.024174422 -0.20504448 -0.039242923 0.048126996 -0.010153999 -0.016854044 -0.06898703 -0.077537835 0.11330611 0.08359191 0.070082955 0.10905311 -0.3253393 0.037927214 -0.076362446 -0.007826462 -0.01879218 -0.009714533 0.0012351174 0.051822238 -0.11437128 0.005944105 0.08589971 0.027187293 -0.024099478 -0.0387228 -0.23291647 -0.10346033 -0.043781 0.19431376 -0.08344512 -0.046090305 0.10904781 0.019310558 0.015814159 0.23921551 -0.04300696 0.04579029 -0.23624845 0.04122938 0.0049020657 -0.0077416357 0.023681017 0.0071572596 0.0031194412 0.1930819 0.042913824 -0.06764669 0.12879045 -0.04962695 -0.057378203 0.1447823 0.017595122 0.052079227 0.05842103 0.00058238243 0.1035157 0.17507192 0.02432916 -0.055774454 0.05466616 -0.019567939 -0.14997186 -0.01785801 -0.008597278 -0.01646656 -0.15536837 0.17288399 0.047486003 -0.14006604 -0.085953005 -0.014788607 -0.038868077 -0.121043436 -0.25316247
d39 -0.06635938 0.02164929 -0.13755971 0.26007098 0.14744596 -0.26496264 0.2550048 0.12534294 0.14947437 0.16969788 -0.04282957 0.10772416 0.09822267 0.0064881905 0.06212262 0.21358995 0.2934292 -0.22888608 0.38984844 -0.19431843 -0.021570863 0.24572064 0.2688261 -0.083041295 0.07179914 0.08913008 0.26196712 -0.057265952 -0.025747372 0.12983279 -0.287253 0.20596808 -0.106213346 -0.016713463 0.07868773 0.0773518 0.122826315 0.23129909 -0.059667226 0.16370535 0.089198895 0.33864367 -0.27105755 0.042418562 -0.15324417 -0.036612708 0.32349378 -0.23583075 0.06769121 0.21256316 -0.09787665 0.34254274 -0.12587288 0.1871663 -0.4531232 -0.052331172 0.16523676 -0.21610098 -0.29793793 0.2043107 0.16416384 -0.01856242 0.14189193 -0.18589652 0.22806704 -0.018183518 0.15445316 -0.12059879 -0.15687476 -0.11638876 0.07939457 0.079418704 0.20725454 0.01614205 -0.113945805 0.09967847 0.077231236 -0.12921432 0.023470882 -0.093646325 -0.082467385 0.04581688 -0.059420835 -0.02655392 -0.027210113 0.025848534 0.18566445 -0.04107403 0.09702247 -0.20801857 -0.034190442 0.1112229 0.007853738 -0.10223027 -0.12021374 0.312847 0.18494004 0.12099704 0.061011054 0.057665706 0.17288244 0.14738916 -0.14467916 0.06556924 -0.04305256 0.11599565 0.05646325 0.13533175 0.23568499 0.20453504 0.47595778 0.20492125 0.03057972 -0.0012088285 0.13643746 -0.10862685 0.14086181 0.06881524 -0.03038828 0.0038753035 0.17859128 -0.040740263 -0.07717967 0.08497226 0.12550311 0.0077556917 -0.06720515 0.040677357
d40 -0.30005234 0.21915808 -0.028846107 0.007966571 -0.017315796 0.11908471 0.25597507 0.09733128 0.15961298 0.12908474 0.032598615 0.06571194 0.10353061 -0.05463184 0.047850344 -0.28756675 0.15567556 -0.062064588 -0.10666225 0.26804087 0.2560405 -0.129414 -0.32755533 -0.07512007 0.20296568 -0.34471938 -0.090777494 0.074913196 -0.215983 0.038677175 -0.16429405 0.14761548 -0.007825682 0.17483845 0.12945299 -0.18214221 0.30241454 0.036042534 -0.0028022774 -0.024418024 -0.1899617 0.34687707 0.31898192 -0.015752926 0.23708229 -0.0056664813 0.23236607 -0.33549744 -0.25195742 0.1063784 -0.20766541 -0.16105773 0.18079719 0.044995822 -0.20629215 0.20091069 0.09121186 -0.45134306 -0.14255273 0.32162502 0.1472895 -0.060796514 -0.196296 -0.05872419 -0.20851171 -0.17934436 0.025915086 -0.09636397 -0.023037322 0.030683082 0.06245493 -0.08570595 -0.13931257 0.020275813 -0.22509715 0.086151294 0.1270227 -0.038106617 -0.04820813 -0.12386962 -0.005211603 0.027567739 0.011520467 0.020215211 -0.026162283 0.12840553 0.071437426 0.27219874 0.19475184 -0.1601971 0.1997589 0.04309483 -0.05028963 0.0033042824 -0.060946375 0.053262733 0.03765762 0.17108518 0.036609218 -0.07081045 0.030167611 0.06714316 -0.17183982 0.11698918 -0.16215067 0.06681169 -0.10408819 0.22043708 0.23117216 0.05106797 0.2644084 0.08248222 0.15472564 0.09956922 0.07454816 -0.2516668 -0.069299825 0.044804018 -0.29144686 -0.15907653 0.032122806 -0.11089618 -0.18877324 -0.0068605915 0.03186037 0.061199985 -0.048148174 0.12182775
d41 -0.11824324 -0.0013403697 0.162235 -0.06276735 0.21769507 0.007250141 -0.13440844 0.101709016 -0.048863538 0.057543375 -0.0007819711 0.09296123 0.22929025 0.08304688 0.05503349 0.068355896 -0.20518185 0.19204308 -0.11906222 -0.10666733 0.014683415 0.10188831 0.07358463 0.0048316373 0.11200387 0.23487206 0.11447621 0.03014231 0.13382578 0.085644595 0.21291004 0.14216092 0.044495124 0.0726429 -0.025724698 -0.07072851 -0.20316535 0.025540628 0.25135553 0.056521427 0.19677998 -0.17756708 -0.12598117 0.045413245 0.0065110447 0.06796193 -0.25991613 0.15350431 0.23338602 0.015886242 -0.111354075 -0.25403726 0.081467554 -0.14460602 0.19412266 -0.116158225 0.0077177035 0.0962546 -0.17570491 0.17404108 -0.12193299 0.10270989 0.023217553 0.034488603 0.08841195 -0.22038269 0.033213243 -0.07782532 -0.14783347 -0.21615873 -0.017278785 0.04063669 0.10743849 0.050885603 0.022692673 0.07386558 0.029970648 0.05112989 0.026324507 -0.01658657 0.11709435 0.07606072 0.099038355 -0.120886125 0.03730509 -0.0022804064 0.12981957 0.11321343 0.24894597 -0.02522382 0.020429894 -0.0458891 -0.107591785 -0.13436212 0.27037668 0.16473483 0.05281133 -0.0005315112 0.13491586 0.16555889 0.12974468 0.11975635 -0.06567193 -0.20473608 0.33894876 0.05932576 0.16181162 0.13084379 -0.07481191 0.16746688 0.19766146 0.017432319 -0.013273838 -0.11197366 0.074610524 -0.17988342 -0.048786495 -0.036822166 0.07477651 -0.027950164 0.024244718 0.01663311 -0.08872601 0.0075370483 0.02010625 0.12606397 -0.12511024 -0.083699755
d42 0.33334032 0.15238293 0.14574306 -0.050526608 0.03615279 0.06810938 -0.20677404 0.025291907 0.12359871 0.1131313 -0.058850557 -0.04167834 0.19878915 0.045302413 0.030003382 -0.07781552 0.0093215965 0.24479638 -0.35750824 0.040995747 0.24726088 -0.08968414 0.006815521 -0.020181568 0.0372537 -0.119014464 0.065565474 0.08789108 0.21414545 -0.044823054 0.07433255 -0.09776523 0.1961241 -0.08417057 -0.118179135 -0.26970103 -0.089449696 0.06620415 0.3630514 -0.04735977 0.19473453 -0.20635939 -0.22452377 -0.10302398 -0.10412439 0.052824844 -0.25294128 -0.06932799 0.15201558 -0.11932195 -0.024882354 -0.21190341 -0.061519265 -0.077137016 0.22721846 0.06580169 0.12255131 0.15128003 -0.033128258 -0.21588412 0.075093724 0.09227483 -0.2550388 -0.018357426 0.091854 -0.1392327 -0.0028630411 0.033474505 0.39591154 0.08486308 -0.028127726 -0.06965434 -0.18121822 -0.14361544 0.03470583 0.037437256 -0.092141554 0.13037509 -0.098160535 0.003440862 0.14406736 -0.038324993 0.051487092 0.065576345 -0.0049804673 -0.010212358 0.08707129 -0.047710665 0.24553457 -0.056015052 0.064677216 0.22863092 0.05187204 -0.07184498 -0.041528586 -0.12946029 0.1451351 -0.029225232 -0.093355514 -0.030251872 -0.21506499 0.052544396 -0.007903268 -0.08064476 -0.104837075 0.04405565 -0.12326486 0.055980027 -0.10703641 0.101829946 0.108323194 -0.018696647 0.119118825 0.08277833 0.029942354 0.010417665 -0.24670395 -0.20318264 -0.030789949 0.036057375 -0.13266203 0.06419012 0.066887856 -0.119217195 0.063362874 0.14351307 -0.04524021 0.15110974
d43 0.060287308 -0.07037537 -0.08326391 -0.07148759 -0.35634193 -0.058590066 0.02540586 0.0069558155 -0.34598926 -0.14768647 -0.13867286 0.4375007 0.4073595 -0.08112699 0.360042 0.09848414 -0.05313411 0.038545202 0.32772478 -0.031186147 0.015494042 0.06465087 -0.032316647 0.08162942 0.13116443 -0.22084597 -0.21454526 0.07009353 -0.23264627 -0.16223261 0.10643306 -0.08229534 -0.07342989 0.2559256 -0.04701345 -0.1258891 -0.32304505 -0.43835005 -0.25751024 0.32183746 -0.25871107 0.12912208 0.12777582 0.2635055 0.18231878 -0.20519398 -0.1709945 -0.037015736 -0.27447578 -0.07864584 -0.25312287 -0.44151935 -0.15932973 -0.2840201 0.42544976 0.24863969 -0.088841565 -0.30552673 -0.030113945 0.117367916 0.047136545 -0.10711585 0.10162154 -0.029259678 -0.28548852 0.07897743 -0.2529965 0.18759266 -0.37873155 0.18432692 -0.12859635 0.051035546 -0.048697673 -0.092282504 0.19451465 -0.47376573 -0.072444856 -0.3458081 -0.12802674 0.102201775 -0.13705336 0.14473432 -0.1204658 -0.40514663 0.1518621 0.0117759155 -0.2985182 0.022135645 0.19897787 0.1664264 0.012942627 -0.26980016 -0.26321125 0.29702562 0.26452982 0.014446896 -0.14401673 -0.21250044 -0.15359174 -0.020097736 -0.041271023 -0.24965224 0.0730437 -0.37380227 0.14719026 -0.2856721 0.2556116 0.051069856 0.33103698 -0.1549724 -0.30801538 0.01659679 0.27032852 -0.5442307 -0.20362824 -0.065228365 -0.30990145 -0.10016244 0.10213815 -0.11932047 -0.066044964 -0.17026855 -0.17899854 0.0033201384 -0.22724351 -0.12549637 -0.054652024 0.11490204
d44 0.29821256 -0.33173493 0.120473444 0.09423627 0.16047218 0.13022791 0.055209137 0.13649222 -0.037585147 -0.010625357 0.24313137 0.10849724 0.3502491 -0.032788407 0.06577232 0.5885712 0.37372515 0.39793712 0.37069753 -0.1298152 -0.115533076 0.2031621 0.018783072 -0.024013542 -0.25448418 0.022662334 0.17858568 -0.09484964 -0.0041688746 0.12134869 -0.10414063 0.119278006 -0.00986584 -0.07513936 -0.113293074 0.08206647 -0.11114817 0.062330265 0.2770574 0.24133824 0.30080938 -0.25117707 -0.17676 -0.074002765 -0.35155293 0.11949298 -0.12633595 -0.046653062 0.25347763 -0.0155344345 0.02278209 0.13213147 -0.06108071 0.13757901 -0.08616984 0.04069902 0.06553281 0.044393364 -0.43354774 -0.027015546 0.12942162 0.1046541 0.09326798 -0.09342219 0.118149534 0.18966986 0.27011985 -0.0041834577 0.02215693 -0.45894524 -0.16979863 -0.108108655 0.16800818 0.002694798 0.10020006 0.053240787 0.026407726 0.0775744 0.08728008 0.13996467 0.19467299 0.41949397 -0.1318264 0.09373141 0.2026566 -0.13148177 0.21631105 -0.079971634 -0.07934368 -0.31224996 -0.02253635 0.5498057 -0.0047682445 -0.5378672 0.09693079 0.028819183 0.014781942 0.003165792 -0.052346576 0.23724683 0.08624597 0.17143321 -0.23217206 -0.12370781 -0.107071735 0.18733889 0.11800405 0.19152747 0.06664815 0.19192682 0.23054452 0.26973698 -0.43736917 -0.10974287 -0.49942702 0.14575668 0.032375224 0.16854292 -0.0045598126 -0.08758074 0.102614574 -0.0038929165 -0.023023633 0.21952188 -0.32280895 0.1919779 -0.038584497 0.39337406
d45 -0.12608956 -0.057941426 -0.09504167 -0.030465554 0.08308928 -0.040387027 -0.02850003 -0.09358652 -0.20096883 -0.11656404 -0.1488917 0.11887854 0.12916104 0.07094976 0.1266527 0.14032127 -0.1627848 0.06163584 -0.046034385 -0.05584637 -0.008421575 -0.030670296 0.00457304 0.07408661 0.028107002 -0.17920865 -0.040915925 -0.08530285 -0.2306371 -0.13567336 0.06045332 9.4029274e-05 0.103973724 0.15757519 -0.10058719 -0.02529693 -0.10246847 -0.3365424 -0.11985284 0.09107332 -0.1525444 -0.034909915 0.055009786 -0.113115676 0.090738304 -0.009673131 -0.029175263 0.09113849 0.10142782 -0.14207195 -0.039785877 -0.117795676 0.035952777 -0.20989779 0.012199354 -0.028793123 -0.10147232 -0.122149885 -0.11832904 -0.006444096 -0.11254885 -0.015743079 -0.10993249 0.036000118 -0.16133453 0.022650823 0.0008843089 0.103814915 -0.18000399 -0.037658315 -0.23095807 -0.08054959 -0.03539179 -0.07833045 -0.04343586 -0.23212837 -0.12928765 -0.14708109 6.9652764e-05 0.050271817 0.009370209 0.091693185 -0.31532362 -0.13535768 0.20062017 0.019682627 -0.05279065 0.047813814 -0.09924896 0.09046421 -0.042641785 -0.0054191505 -0.24482743 0.03346589 0.28608093 0.07242809 -0.1308511 -0.14585151 0.062046476 0.092692584 0.033842936 -0.0671611 0.031112002 -0.27518827 0.20973009 0.036630575 0.095427305 -0.1027815 0.11087177 -0.21950297 -0.19556147 -0.1422827 0.041474815 -0.33155817 -0.1417871 -0.20336136 -0.06150246 -0.07851368 0.035001785 -0.1408758 -0.20458853 -0.2788201 -0.1296357 0.027485378 0.024893964 -0.0039256485 -0.02929291 -0.06315336
d46 -0.07176548 0.15816914 -0.27761406 0.11659754 -0.3063071 -0.19368552 -0.056754995 -0.10182244 -0.23985931 0.10576136 -0.045354713 -0.31894812 -0.16882578 -0.030253876 -0.10208044 -0.24630961 -0.26262492 0.037150424 -0.11938283 0.15682818 0.20154722 -0.16091144 -0.36589283 0.14369239 -0.18277954 -0.09946957 -0.19434834 -0.20322274 -0.14206778 -0.28718796 0.17550567 -0.16671303 0.099598154 -0.12098422 -0.03596983 -0.043226402 0.21880181 -0.066363335 0.11129573 0.030824844 -0.25934094 -0.27140322 0.020571293 -0.061443195 0.22801135 0.017445004 -0.254908 -0.014304105 -0.14990646 0.23715138 0.12404975 -0.26833713 -0.08771195 0.20362906 0.03420399 -0.04809182 -0.25170898 0.2098111 0.23155466 -0.06332019 0.10941566 -0.32951763 -0.06770401 -0.08432791 -0.29229972 0.06734948 -0.11355604 -0.009412112 0.013264861 0.20488892 0.04193367 -0.1841982 0.03067687 -0.048927464 -0.014333598 -0.18860699 -0.2078151 0.10996577 0.01821333 0.14654146 -0.18743245 -0.17608105 0.15071715 0.042214826 -0.019315176 -0.00491117 -0.2551409 0.07610593 -0.18580453 0.0071496977 -0.1205904 0.08950942 -0.003239129 0.068403795 0.102297515 -0.06016781 -0.0028271717 0.018107468 0.09159378 0.010711332 -0.34700972 -0.2611647 -0.15731324 0.21630754 -0.34066513 -0.022227272 -0.060369015 -0.4716661 0.034773495 -0.24456352 -0.21131718 -0.19028063 0.011240603 -0.029105064 -0.110088855 -0.3430346 0.2103309 0.13225779 0.0561279 0.06985639 -0.19124539 0.4296549 0.12049193 -0.2524536 -0.13408665 0.0017496754 -0.12450272 -0.38560107
d47 -0.064434044 0.16141614 -0.31887522 0.013971161 -0.39634967 -0.2770189 -0.088594645 -0.0813621 -0.25210586 0.0949421 -0.03163903 -0.2743454 -0.34855545 0.06478775 -0.058598686 -0.18432434 -0.19287224 -0.015182192 -0.14790393 0.16487296 0.16336931 -0.27800477 -0.3609699 0.16854303 -0.26369846 -0.06895465 -0.2064254 -0.24945201 -0.11298098 -0.2453404 0.14555672 -0.17858295 0.08939578 -0.06401211 -0.08679545 -0.06866489 0.2069357 -0.10499336 0.009750315 -0.03099592 -0.25091976 -0.19473042 0.04232306 0.0018362842 0.1125568 -0.030690148 -0.31650344 -0.0150703285 -0.2909859 0.11494661 0.1554901 -0.30232775 -0.03265035 0.18403341 0.056140903 -0.017852375 -0.3645412 0.2642248 0.29007393 -0.09083374 0.0645698 -0.38051996 0.013936565 -0.069665834 -0.29688776 0.09190726 -0.1565561 0.05499451 0.05352495 0.15279144 0.009285633 -0.13511036 0.12683797 -0.08939615 0.0030480572 -0.1416296 -0.19204602 0.09900063 0.114411436 0.11561463 -0.19282539 -0.16111755 0.09036517 0.0065160473 -0.032458495 -0.05612912 -0.20029281 0.08551009 -0.19468646 0.046599235 -0.18319942 0.025171941 -0.027025204 0.13924064 0.12449191 -0.039898492 0.0258783 -0.02766339 0.012575963 -0.03005947 -0.38779464 -0.34204116 -0.16269964 0.2146928 -0.30438906 -0.021840325 -0.13657032 -0.38543898 0.04914214 -0.27417833 -0.27847454 -0.1926129 0.012639704 -0.05699335 -0.08750817 -0.24459945 0.19439597 0.11883363 0.13701954 0.034522146 -0.080941 0.39842644 0.08157181 -0.32528645 -0.20073685 0.049639165 -0.2534092 -0.4341248
d48 -0.003311959 0.03778954 0.1901523 0.0026231424 -0.083985925 -0.02923497 -0.072404794 0.11028507 0.15244907 -0.2820017 -0.1389055 -0.3069269 -0.09238729 0.06582136 -0.120748885 -0.020429872 0.06408568 0.22193827 0.19766043 -0.054142743 -0.030260464 0.10617266 -0.005339467 -0.08629525 0.093947425 -0.0038891144 -0.024195997 -0.07632268 0.20891927 -0.062183682 -0.3212732 -0.25753427 -0.13687293 -0.009444704 0.049863417 0.07516008 0.28765818 0.04388259 -0.08790033 -0.04517157 0.2531268 -0.10349166 -0.026173554 0.21157975 -0.19037992 0.050187957 -0.10519937 0.14518572 -0.019497719 -0.13972053 0.056522604 0.31090304 0.1708074 0.18449724 0.20129944 0.12514658 0.1836165 -0.056645233 -0.1562181 -0.14997973 -0.24215719 0.2685553 -0.029871006 0.16039132 -0.17208187 -0.25998756 0.050674237 0.21508545 0.10556448 0.13878703 -0.0995993 -0.026370406 -0.1651718 -0.02927639 -0.13014211 0.123113714 -0.016972832 0.08952463 -0.25801516 -0.018612461 0.07652198 0.023582034 -0.27237755 0.3665062 0.013589115 0.0083957 0.06681294 0.11094794 -0.0982803 -0.03137949 -0.08546738 0.07765938 0.09902358 0.061889656 0.035889424 -0.09171667 -0.3137138 0.14613917 -0.26333368 -0.24039194 -0.028963428 0.20126595 -0.07322724 -0.02933676 -0.08933439 -0.075246766 -0.05081505 0.061390933 -0.086923085 0.19323699 0.08056646 0.122516856 0.21414104 0.19445215 -0.112906404 -0.066896886 -0.00498676 0.06101817 -0.19394793 0.09146896 0.07443803 -0.032095637 -0.12314681 0.13559088 0.05079453 -0.034638844 -0.07139254 -0.023723371
d49 -0.09085727 -0.21379317 -0.15619847 -0.014565878 0.15838005 0.011043581 -0.16539964 -0.087595634 -0.07208583 0.092519164 -0.046890214 -0.24785663 -0.15148428 -0.03776989 -0.047770057 0.11131643 -0.1835809 0.027276684 0.071371265 0.053833686 -0.14864285 -0.028227847 -0.14665504 -0.035721317 -0.08011733 -0.32370365 -0.058789276 -0.2278896 -0.15809727 -0.16290793 0.27142596 -0.013419769 0.008494704 0.09034372 -0.08362872 -0.02421205 -0.06497256 -0.058825646 0.045683485 0.21483818 -0.16971628 -0.13021237 0.0048460322 -0.09833853 0.051778536 0.043164972 -0.13791244 -0.10845492 0.20307286 0.099858545 -0.10616375 -0.18623756 0.057063285 -0.157507 -0.26833555 -0.09629317 -0.039358184 -0.092559844 -0.14850245 -0.14850378 -0.12507533 -0.18190749 -0.11102991 0.11007316 -0.21188225 0.1261011 0.14182964 0.0055119586 -0.019371117 0.014925445 -0.2608259 -0.19381934 0.001107489 -0.048043627 -0.020999707 -0.15091854 -0.19677317 -0.28618276 -0.09883552 0.049952984 0.010400635 0.03731688 -0.27625275 0.060437877 0.00960211 -0.08218573 -0.19336249 -0.030736296 -0.2589957 -0.09822392 -0.094966084 0.25648788 -0.017275328 -0.36951372 0.1310017 -0.08857738 -0.26164842 -0.21010146 0.17407964 0.10447713 0.055016067 -0.06446024 -0.086180285 -0.15162978 -0.26795265 0.00854923 -0.13831307 -0.22127084 0.037800055 -0.12822941 -0.25770494 -0.16790204 -0.13248254 -0.23017256 -0.30974758 -0.1962084 -0.0127066085 -0.07084321 -0.10989649 -0.11700418 -0.13578774 -0.073426954 0.009180808 0.01014467 -0.14479414 -0.09270472 0.03911497 0.05340869
d50 -0.0028819495 0.0637175 -0.00027695918 -0.11680915 -0.11107972 -0.1861831 0.0714544 -0.06001333 -0.0014991922 0.16112782 -0.04507752 -0.08407621 -0.21050675 -0.08268702 -0.14826459 -0.33042216 -0.09547497 -0.092351995 -0.18018115 0.16892336 0.13513811 -0.26798034 -0.13005073 -0.06507836 0.0071437987 -0.32281741 -0.2034999 -0.10029717 -0.25825158 -0.093283534 0.105521776 -0.022094993 0.12315001 -0.0073209573 -0.05623162 -0.2919297 0.060982257 -0.08092008 -0.07654834 -0.07245295 -0.2467385 0.15845175 0.2464721 -0.09092551 -0.031267833 0.012172016 0.09491584 -0.23022327 -0.17240888 0.0202469 0.063431375 -0.111071885 0.18991998 -0.024931569 -0.10545447 -0.12738389 -0.006869219 -0.31151244 -0.048956413 0.12892744 -0.10360151 -0.20189905 -0.28185073 0.029760815 -0.2887612 -0.14593166 -0.064341895 -0.06739918 0.1616188 -0.027043885 -0.026687304 -0.054487087 0.037262797 -0.17271504 -0.03311573 -9.411214e-05 -0.018235058 -0.055292025 -0.08833679 -0.11068405 -0.051499493 -0.036726706 -0.15068819 -0.24179493 -0.0022618421 0.08477111 -0.107331395 0.09611646 -0.14833373 -0.09737785 0.29389426 -0.11758946 -0.018874917 -0.08290613 -0.0943943 -0.0042138835 0.008250949 -0.07741401 0.20851539 -0.14958273 -0.3047025 -0.06258403 0.13616389 -0.03681409 -0.02215527 -0.0033432567 -0.1408719 0.04460186 -0.059179563 -0.041914523 -0.064103715 -0.10808437 0.04777133 0.07179873 -0.0062252986 -0.29280594 -0.042903986 -0.0765382 -0.0069669643 0.038252708 -0.08228043 -0.074374065 -0.047619015 -0.07425928 -0.02471273 -0.07648605 -0.00042283343 -0.04765397
d51 -0.08854532 0.109179534 -0.05091866 -0.10310394 0.033614796 0.017912408 -0.22531483 0.067446046 -0.005482635 0.045651335 -0.14145777 0.08507477 -0.31599265 0.07719066 0.016023403 0.3111944 -0.09378935 -0.0046631303 0.12141731 -0.1914128 -0.0781619 -0.1208029 -0.104887635 -0.1150781 -0.20122954 -0.31382138 -0.08278481 -0.1738243 -0.088926695 -0.038338497 0.19039431 -0.03063447 0.04962153 -0.2591133 -0.08159552 0.08497738 -0.031440035 -0.08542134 -0.14213048 -0.16261783 -0.13936616 -0.09058616 -0.11897347 -0.091876216 -0.07107871 -0.060226064 -0.19394514 -0.304042 -0.02371833 -0.04961127 0.005187438 -0.066082925 -0.04558573 0.06665344 -0.38842842 -0.07072809 -0.04737319 -0.084169395 0.07232916 -0.2794895 -0.18920797 0.049861018 -0.11540222 0.023139104 -0.18789603 -0.097864546 -0.040974636 -0.046566844 0.16720778 0.10959796 0.09372808 -0.0485194 -0.18951228 -0.22441122 -0.14262615 -0.032203093 0.08075419 -0.040855248 -0.07280068 -0.27772558 -0.09976863 -0.12129129 -0.022734178 -0.08076974 0.006089911 0.20905632 -0.20486239 -0.19767086 -0.17177226 -0.002464009 0.15835537 -0.25003263 -0.030222407 -0.03483767 -0.29949224 -0.18146726 -0.19630566 -0.058006126 0.18324405 -0.016943002 -0.21117634 -0.21920931 0.080650665 -0.20853049 -0.002093244 -0.06710445 -0.20304623 -0.17553619 0.014928888 -0.0840579 -0.23838711 -0.17369711 -0.40595257 -0.06577365 -0.1790172 -0.22719419 -0.08439534 -0.20624961 -0.12606251 -0.35931325 0.08755608 -0.045447525 -0.061681747 -0.056309063 -0.20430142 -0.12649554 -0.04626313 -0.33438408
d52 -0.027249094 0.21541478 0.28628102 -0.08582866 0.0035089003 -0.08194199 -0.16023324 0.102669604 0.22086121 -0.22926003 -0.20395432 -0.2856592 -0.096877225 0.051900648 -0.11251648 0.042090517 0.01699949 0.19286972 0.21434318 -0.05478686 0.0027049384 0.11381042 0.035891477 -0.09222267 0.20164154 0.034211032 -0.024926515 -0.17445834 0.17365682 0.049362477 -0.2679711 -0.27079716 -0.1322289 -0.05652917 0.14631687 0.029866816 0.2857818 0.07132235 0.07308306 0.011695415 0.20999311 -0.19285621 0.12546474 0.21957344 -0.17721416 0.059288424 -0.295772 -0.13089846 -0.031758565 0.017984664 0.0020944613 0.32188395 0.17511983 0.21081151 0.046233084 0.037971318 0.11238691 -0.21600564 -0.19976148 -0.27170098 -0.14123484 0.24528456 0.06480319 0.25114694 -0.122890756 -0.16036434 -0.095338985 0.4224399 0.16127275 0.22371347 -0.017496888 -0.05872236 0.018597858 0.012033436 -0.106369846 0.15609546 -0.07361535 0.059328683 -0.18895476 -0.061973896 0.037346944 0.032732174 -0.5928762 0.23742646 0.20520736 0.007595402 0.034176897 0.08706597 -0.19784537 0.28831804 -0.026637087 0.18975103 0.07600952 -0.053777345 0.076314636 -0.221437 -0.48245022 0.07479744 -0.20120947 -0.09340381 -0.04715257 0.20214127 -0.06033428 0.07075944 -0.07953252 -0.11658949 0.0397834 0.0557845 0.017794525 0.092142016 -0.2670891 0.05537014 0.10209632 0.10475796 -0.12841435 -0.1094506 -0.046817284 -0.026926981 -0.07947954 0.16702077 -0.004608079 -0.025864149 -0.09331993 0.0825331 0.0064049447 -0.03174604 -0.0068801907 0.17857015
d53 -0.031295627 0.11982142 0.17448832 0.041762102 0.024328435 -0.18904448 0.24982773 0.098794155 -0.112865284 -0.22282024 0.010853443 0.105331846 0.29063532 0.015789388 -0.12818919 -0.0033945434 0.08154449 0.28786668 0.13326691 -0.10365378 -0.06772649 0.23426503 0.057099495 -0.054029405 -0.05616247 0.2630026 -0.088327706 -0.01245503 0.32419577 0.27690318 -0.037918877 0.02864795 -0.09368125 -0.06988251 0.19576566 0.05429226 0.2854845 0.070777096 0.068309665 -0.057943646 -0.3928723 -0.05182773 -0.15815844 0.039558943 -0.2233364 0.17517959 0.22933105 -0.15867051 0.0066617155 0.31777957 -0.12619528 0.086050175 -0.012164722 0.21958141 -0.4283509 0.020665154 0.17030929 -0.20312633 -0.25921345 0.19426362 0.0893111 0.29113245 0.20329778 -0.0699304 -0.17085092 -0.15100607 0.08347207 -0.26566073 0.22169313 -0.1956122 -0.021774286 -0.084980085 -0.14331016 -0.037676085 0.088211685 0.11920477 0.10512989 0.14097124 -0.026817024 -0.16059066 0.12819405 0.030671274 0.03011813 0.048926827 0.082714 0.05857721 0.11323726 0.04351847 -0.10839498 -0.23468043 0.03705631 0.06200656 0.06360176 0.022203153 -0.07273795 -0.18301246 0.029772 0.17667663 0.05168846 -0.24186115 0.13707902 0.08283057 0.08571264 -0.038802646 -0.011785691 0.103249475 -0.019396052 0.10449826 -0.21869123 0.1610946 0.34810972 0.057683118 0.09550677 0.1998742 -0.012680291 0.05519282 0.011668278 -0.0039313845 -0.18379171 -0.14608036 0.1009198 -0.12839042 -0.035749603 0.11551658 0.09681904 0.0038601689 -0.06110381 -0.049345765
d54 0.13163307 0.22469348 0.008147176 -0.0072062244 -0.19592193 -0.10335528 0.048909806 -0.0033891671 -0.08030436 0.010287765 0.028326359 -0.22993204 -0.19809908 -0.038349897 -0.09283836 -0.39866534 -0.15677318 -0.022434322 0.09033703 -0.033659488 0.025124857 -0.04767634 0.06548637 0.027757728 -0.28274223 0.2823224 -0.17320053 -0.016578872 -0.21228889 -0.057912715 -0.028714279 -0.16428238 0.038688816 0.1311013 0.031648744 -0.11566058 0.30418694 0.04479859 -0.022951256 0.07202614 0.17630982 -0.21787222 0.21353775 -0.0740388 -0.19944394 0.013189869 -0.14085707 -0.17141636 -0.16448359 -0.032208398 -0.04226906 0.00652901 0.23596466 -0.13983275 0.17709383 0.07076167 -0.13496797 -0.35629407 0.04542067 -0.018196845 0.06525716 -0.022701442 0.056101788 0.0514776 -0.20027785 -0.07925324 -0.06609749 0.12088444 0.061841384 0.33652607 -0.3634299 0.21846484 0.03953682 0.02434924 0.033505533 -0.32558873 -0.0759117 -0.12816575 -0.010563098 0.07422238 -0.057217546 -0.080673456 -0.10096391 0.0288941 -0.048882727 -0.1901514 -0.18979187 0.061733685 0.03392245 0.29105663 -0.03869727 0.4107067 -0.037522204 0.17567216 0.084011555 -0.17818761 -0.3557868 -0.07494905 -0.007068548 0.18063092 -0.17072414 0.15292795 0.1482587 -0.060168777 -0.14318389 0.0012564285 0.02114023 -0.23734795 0.2777099 -0.23870364 -0.15239933 -0.35856876 0.0791125 -0.0030023132 0.020973833 -0.21536177 -0.032023955 -0.047702104 0.05519141 0.065543994 -0.31460938 0.14415385 0.13999188 -0.12544543 -0.21284668 -0.034152675 0.08710323 0.29483137
d55 0.059733152 0.17319568 0.13163047 -0.28295577 -0.124976896 -0.048646055 0.11879055 0.117734134 -0.1656233 0.050273914 -0.018924078 0.087117545 0.017065754 -0.05675127 0.06845216 -0.13101578 -0.039575286 -0.03485566 0.08613905 0.06266843 -0.12671745 -0.012895874 0.050893098 -0.1500661 0.031337827 0.056354817 -0.09409825 -0.008392677 0.23998828 0.2580836 0.03319127 -0.029831024 -0.36475638 0.15622312 0.05648299 0.104994096 0.033031013 -0.114375256 -0.038801223 -0.090675 0.093343146 0.13869852 0.14274758 0.061224483 0.1517194 -0.15911624 0.18729252 -0.32728973 -0.31716567 0.26453775 -0.26851907 -0.60901386 -0.13064367 0.047568683 0.16929357 0.311698 0.21105883 -0.09009675 0.03957641 0.068024226 0.09515351 0.12281089 0.04969519 -0.0575658 0.20676439 -0.17346661 0.04696774 -0.085466966 -0.09929799 -0.09059911 -0.046001334 0.022980709 -0.13507298 0.04482877 0.061463755 0.0863887 0.115478575 0.0006549515 -0.11645621 -0.05247387 0.009931171 -0.04539296 0.104635894 -0.044430792 -0.18734263 -0.010823294 0.036200035 0.019755635 0.27957743 -0.13835491 -0.037692238 0.010972638 0.004567482 -0.019263295 -0.07638154 0.027341966 -0.02677638 0.0803522 -0.19145918 -0.18448812 0.1232021 0.10054217 -0.07287389 -0.05692164 0.01232102 -0.10231069 -0.048138317 0.13124605 0.041554615 0.18035617 0.08944773 0.08678586 0.034612354 0.054655835 0.05476031 0.11789517 -0.06081045 0.006986474 -0.15690683 -0.10030617 0.13302627 0.12968451 -0.21322809 -0.0694507 -0.019078624 0.059985172 -0.16547646 0.1403667
d56 -0.01803275 0.055131946 -0.058133874 -0.19726376 -0.35765123 -0.02694911 0.0026574412 -0.09801418 -0.15062082 -0.020499848 -0.009134127 0.028602 0.12404429 -0.072143316 0.028428877 -0.16438317 -0.10217679 -0.19737516 0.26883933 -0.04529613 -0.08449753 -0.17893237 0.09969637 -0.1602097 0.06271391 -0.16355738 -0.14682736 0.060000204 -0.009874414 -0.1166759 -0.22077098 -0.09958303 -0.26129794 0.040540475 -0.07977587 -0.1656975 -0.14940353 -0.21759957 -0.14649399 0.19772884 0.03403955 0.026528694 -0.03715245 0.123348795 0.028962908 -0.31160414 -0.057598136 -0.14705037 -0.32925403 0.03018466 -0.26517266 -0.47716472 -0.32490474 -0.14619848 0.55558956 0.18709955 0.07182968 -0.26209435 -0.013742299 -0.14264485 -0.08679041 -0.057535492 -0.13616772 -0.05075831 -0.20932393 -0.037427787 -0.2755269 0.17283896 -0.35589498 0.17457095 -0.16051747 9.535582e-05 -0.10046352 -0.11490965 0.105795085 -0.15996255 -0.0665222 -0.28567702 -0.11931942 0.08980464 -0.065397136 -0.10601784 -0.2945492 -0.286261 -0.15477484 -0.03982172 -0.1950062 -0.1451717 0.1615943 0.15591829 -0.16575378 -0.29258457 -0.027216978 0.16690779 0.0063255415 0.024309298 -0.21020752 -0.09327166 -0.20093805 -0.31416202 -0.06665391 -0.073221385 -0.040817942 -0.14501749 -0.089547396 -0.25247967 -0.027034022 -0.092096046 0.11135264 -0.19247444 -0.39232183 -0.022147045 0.10631466 -0.32766032 -0.011384182 -0.022457452 -0.23854432 -0.097198784 0.006933802 0.013805922 -0.011528631 -0.1519223 -0.14028549 -0.057470594 -0.19042024 -0.19709751 -0.1340722 0.20493221
d57 -0.035552323 0.037090074 -0.06286051 -0.25945565 -0.4152626 -0.0389542 -0.028510595 -0.112829775 -0.13317838 0.018099574 -0.070261136 -0.10718258 -0.0636522 -0.027870694 0.04262255 -0.35102302 -0.21082014 -0.28976232 0.18539144 -0.04728894 -0.12455123 -0.12948307 0.062051836 -0.15944096 0.007914583 -0.13181883 -0.14463735 -0.03139995 -0.03688968 -0.19006412 -0.2144372 -0.115369305 -0.26321596 0.07327286 -0.0530187 -0.1149988 -0.13641822 -0.18549716 -0.30583006 0.06555743 0.026862353 -0.05444628 -0.023891494 0.17491472 -0.0345454 -0.25783575 0.03019943 -0.19399711 -0.36215052 -0.031919833 -0.19252536 -0.48646486 -0.28222817 -0.18755086 0.4483044 0.15689597 0.0613697 -0.17483501 0.010454226 -0.15228458 -0.15392382 -0.055247743 -0.1132108 -0.023539735 -0.24641015 -0.13197176 -0.23311527 0.014842947 -0.37616765 0.103781275 -0.1387066 0.0061257686 -0.106392406 0.016644632 -0.04552175 -0.17052378 -0.10257403 -0.2902371 -0.21925524 0.15544303 -0.07545538 -0.12146818 -0.052984055 -0.16394417 -0.2814308 -0.08385537 -0.25316393 -0.14991799 0.06400571 0.077709034 -0.14607088 -0.13657095 -0.037318822 0.24190557 0.024282118 0.08395149 -0.1856531 -0.031078279 -0.24749547 -0.34015203 -0.020235948 -0.080378935 -0.04769553 -0.23178865 -0.10578702 -0.359587 0.06199275 -0.1435458 0.038626507 -0.10411348 -0.31259066 -0.02779104 0.12100489 -0.23544136 -0.044599593 -0.03771866 -0.1429709 -0.024889322 -0.039865766 0.01928817 0.014193561 0.11469241 -0.12063516 -0.024132842 -0.18365201 -0.12668242 -0.12559018 0.27212948
d58 0.32298696 0.10785377 0.15650758 -0.15574457 -0.18673038 -0.19119939 0.13549358 0.07782692 -0.03341479 -0.07593022 -0.24885471 0.14829215 -0.3850682 -0.3477597 -0.13476062 0.3168483 -0.03373655 0.26979104 0.13640876 0.00802251 -0.42609096 -0.06833034 -0.549087 -0.039587557 -0.31477985 -0.32517183 -0.03296827 -0.031686027 0.19912696 0.08670774 0.41206926 -0.05016112 0.042315964 -0.08817546 -0.4224769 0.1666706 -0.000928339 0.018112335 0.4279607 -0.013980253 -0.020757515 0.13975675 -0.08762775 -0.06582963 -0.12942103 0.2565764 -0.21986315 0.347352 -0.10305213 0.11156018 0.10349189 0.051852625 0.18156317 0.3916798 -0.07716261 -0.20408018 0.023878885 0.13899691 -0.004700641 -0.19833642 0.09297346 -0.008212611 0.49846068 -0.1650226 0.13252291 -0.038577717 0.008113497 -0.10107 -0.12237108 -0.01346043 -0.05069029 -0.06515555 -0.24918643 -0.02579375 0.07196172 0.11484537 -0.050734635 -0.018247867 -0.023214323 -0.07000756 -0.07148101 -0.073609844 0.20609047 -0.020586513 0.0053312066 -0.017779568 0.094508104 0.021593507 0.15419401 -0.18353227 0.06661715 0.012489509 0.103765026 -0.19188121 -0.007875605 -0.10319784 0.07199 -0.10079676 0.13227828 -0.06493832 -0.28884882 0.051406827 -0.023578359 0.047758345 0.13615257 0.042949785 0.038929764 0.060167745 0.065862164 0.19768202 0.14315341 0.04529057 -0.010469739 0.09197925 0.12849031 0.3035352 -0.075273745 -0.03778203 -0.031279642 0.056559328 0.09623291 0.26873097 -0.12505849 0.03023033 0.06559625 0.040303588 -0.008643199 -0.07312795
d59 -0.100398 0.3006057 -0.038123693 -0.16506904 0.10658107 0.04090983 -0.39828098 0.08733648 0.040744673 0.18435025 -0.07944037 -0.04684801 -0.15640156 -0.02999523 0.051368445 0.03746093 0.039045088 0.14932929 0.08747015 -0.047299877 0.056648627 0.065536715 -0.05010779 -0.06291081 -0.17964911 0.29211316 0.017639093 0.061925653 0.07649883 0.09602601 -0.006119638 -0.0345969 -0.14689577 -0.08387985 0.017441276 0.04809839 0.023020735 0.16390072 0.20241769 -0.12996979 0.17565764 -5.4529664e-06 -0.14556126 0.13628668 -0.04506735 0.038136445 -0.22933841 -0.39064223 0.10177502 0.12491116 -0.00946481 0.16814826 0.05874149 -0.017647842 0.106366865 0.031331237 0.033509396 -0.10109741 -0.12689582 -0.058981482 -0.10291421 0.019890204 -0.06346561 0.16236751 0.0065339324 -0.03182996 -0.082294144 0.26827425 0.13381137 0.17392994 -0.00818818 -0.073324546 0.013294472 -0.015083414 0.057894904 0.10485067 -0.11797527 0.02220219 -0.14911881 -0.06037915 -0.046429332 -0.011783835 -0.39870247 0.16429889 0.24710134 -0.065932944 0.021343013 -0.01803543 -0.040537518 0.2138186 -0.028063772 0.14713113 0.037149604 -0.16498192 0.04463265 -0.25014907 -0.29149762 0.0002092756 -0.099240415 -0.014548414 -0.098241135 0.13504061 -0.062671445 0.030932393 -0.061227694 -0.025565455 0.052392457 0.048945248 0.022888431 0.098835774 -0.3348131 0.06257233 -0.08552486 0.068659455 -0.07681758 -0.059290376 -0.1382052 -0.0717997 -0.10043702 0.050106987 -0.0005090812 0.13713844 -0.12646313 -0.01095071 -0.06387238 0.04361194 -0.029396174 0.23159108
d60 0.016142398 0.1787053 -0.06971964 -0.25963044 0.0820548 -0.106703974 -0.2896092 0.054530647 -0.19133633 0.12798199 -0.2056893 -0.021134883 -0.16782288 -0.13254632 -0.06734746 0.023797896 -0.16263713 0.031865206 -0.082386434 -0.021150714 -0.035672326 -0.17497705 -0.119517595 -0.12306874 -0.20536542 0.07019629 -0.10986351 -0.07121867 0.021112166 0.016373275 0.2796238 -0.10123873 -0.1883514 -0.14468785 -0.1919712 0.023539873 -0.2304159 -0.036507443 0.11978225 -0.3057831 0.017071355 0.109409295 -0.028628968 -0.05099114 0.10604541 -0.0908511 -0.18956684 -0.36301512 0.0135090435 -0.00018688763 -0.060812365 -0.17444615 0.13819507 -0.103434205 -0.005623594 -0.18072328 -0.12862523 -0.09202273 0.055757754 -0.021495225 -0.2235446 0.009351494 -0.34178838 -0.04687915 -0.03388484 -0.018194271 -0.087601945 0.112485304 0.0012583123 -0.037813947 0.12504484 0.010055254 -0.038856935 -0.09218933 -0.010288219 -0.014389653 0.045681115 0.016570093 -0.11891672 -0.15046372 -0.20497365 -0.072911456 -0.11680219 -0.14557724 0.13667648 -0.009560977 -0.083372995 0.09263419 0.19413324 0.022300476 0.06283988 -0.11206776 -0.0708385 -0.20059891 -0.117897235 -0.19605917 0.008581075 -0.12773623 0.07641 -0.046329793 -0.20957445 -0.09784946 0.061679 -0.030205028 -0.0042249043 -0.12446378 -0.21633999 7.056842e-05 0.1058403 -0.005161359 -0.32915652 -0.08639438 -0.10917633 -0.04127408 -0.10928397 0.0016472593 -0.1875383 -0.14109641 0.00066343654 -0.23578477 0.018926078 0.058789343 -0.17213692 -0.18121578 -0.1086348 0.17517157 -0.01783733 -0.025686935
d61 0.044190545 0.24099928 -0.052657954 -0.21191466 0.01095414 -0.08710919 -0.31870866 0.055394247 -0.16098781 0.24836005 -0.21512018 -0.08842143 -0.2956981 -0.23265758 -0.16974923 0.03471963 -0.18602163 -0.0006218068 -0.110155985 -0.017607484 -0.039684366 -0.09811714 -0.17153 -0.1899506 -0.21674901 -0.036051746 -0.123096846 -0.052792333 0.013928364 -0.020011535 0.39295048 -0.09936809 -0.14032194 -0.1901778 -0.18031192 0.015839955 -0.18575785 -0.02555305 0.14465913 -0.3632772 0.08372691 0.07360471 0.05502536 -0.04686457 0.11087678 -0.1019286 -0.16479178 -0.3901826 0.056943588 -0.011495197 -0.038468592 -0.19289823 0.12408918 -0.12345972 0.028556844 -0.14973313 -0.10212558 -0.12514329 0.077643946 -0.007730268 -0.19826743 -0.0032606896 -0.37303 -0.043537967 0.0019074512 -0.040009744 -0.061665013 -0.040471032 -0.025183352 0.011786245 0.05868573 0.0252955 0.019782692 -0.020055847 -0.044906512 -0.021150522 -0.14257537 0.037322704 -0.16670544 -0.097906254 -0.22757764 -0.10902495 -0.10464344 -0.08177117 0.06458247 -0.15086846 -0.16646318 0.079876624 0.10712423 0.024422482 0.018382905 -0.11141839 -0.050256368 -0.25574747 0.016100284 -0.20230292 -0.03612139 -0.1410997 0.13536634 -0.021922572 -0.23412469 -0.1801477 -0.011643547 -0.03562128 -0.17744598 -0.13468246 -0.17511214 -0.09088535 0.05601789 -0.050754722 -0.30253714 -0.17986834 -0.050883077 -0.009637706 -0.10391232 -0.08513113 -0.11696756 -0.17171293 -0.052178726 -0.1241312 -0.061494768 0.17532916 -0.07914553 -0.23262715 -0.16800201 0.13351136 0.0018634857 -0.033584695
d62 0.014459513 0.02771875 -0.011412341 -0.16697359 -0.042463936 -0.048961997 -0.061642665 -0.19037458 -0.053486373 0.047490407 -0.13842341 -0.28804195 0.10660537 -0.049064934 -0.17454545 -0.32802698 -0.37214527 0.029630963 -0.11507331 0.055500206 -0.024714176 -0.12059589 -0.08654593 -0.028643938 0.15566808 -0.2140082 -0.09461252 -0.19712068 -0.07029674 -0.14042135 0.06578549 -0.15212804 0.0025452243 0.0022480832 -0.05685277 -0.33808854 0.06393667 -0.07159159 0.04840242 0.07571239 -0.11315815 -0.21849099 -0.11161169 -0.1146275 -0.10136599 0.116997845 -0.15881014 0.009958758 -0.12745783 0.13165665 0.049425915 -0.3332869 0.057839286 -0.12548743 -0.09772729 -0.13567314 -0.06918869 0.013133059 -0.096610956 -0.100939564 -0.07972605 -0.1425762 -0.12596236 0.08466795 -0.17108728 -0.02962466 -0.098986946 0.18157929 0.2821732 -0.0022652817 -0.124999024 -0.060328975 -0.008172688 -0.023995293 -0.039503526 -0.09649843 -0.1877846 0.275875 -0.02822997 -0.01951317 0.065891914 -0.028969038 -0.113753274 -0.21353628 0.07392589 0.032243297 -0.051631253 0.05888698 -0.14393462 0.041211173 0.041948207 0.18269229 -0.018557247 -0.29276678 0.08368077 -0.22766489 0.20142269 -0.15241005 -0.14507358 -0.0035102402 -0.09701133 -0.05099677 0.04346181 0.051171437 -0.08339249 -0.006101268 -0.07314609 -0.0009600262 -0.102992386 -0.19545783 -0.13627736 -0.20723759 -0.0005374953 -0.036299758 -0.06237371 -0.20557694 -0.1544134 -0.053100858 0.00066625676 0.18427609 -0.25617677 -0.14297453 0.18593213 -0.107345216 0.03172351 0.051178448 -0.027194418 0.18039793
d63 0.075954705 0.013638955 0.13047065 -0.108696066 0.08129753 -0.016805477 -0.0722746 -0.19738232 0.089639924 0.011668099 -0.032648996 -0.35827288 0.20711638 -0.015689842 -0.10043658 -0.3520117 -0.3034661 0.08691765 -0.17607819 0.12716994 0.086507216 -0.18967414 -0.056017846 -0.038038224 0.23148306 -0.16110474 -0.0715448 -0.15138398 -0.09726124 -0.16174614 0.050338533 -0.116132 0.075294286 -0.016975248 -0.13178757 -0.51454014 0.05409867 -0.06518616 0.031183207 0.10443015 0.013504987 -0.4454599 -0.06533097 -0.12570398 -0.2805331 0.16554414 -0.16002053 0.032773893 -0.04252528 0.21332496 0.047966857 -0.34855077 0.08408801 -0.09046214 -0.090911575 -0.13429727 0.0014059948 0.058651075 -0.19280252 -0.12788431 -0.029508378 -0.124716975 -0.060300045 0.11958129 -0.15447667 -0.030854004 -0.14500232 0.2225687 0.26938266 0.006015794 -0.14500389 -0.10370022 0.02707533 -0.018776646 -0.023497403 -0.09815119 -0.21412358 0.16447815 -0.022102902 -0.015184895 0.080185704 -0.045357846 -0.09922962 -0.21244904 0.05753599 0.004617477 -0.044516686 0.024072083 -0.17270058 0.019486161 0.06819399 0.20823407 -0.019890197 -0.18930176 0.062872335 -0.18168248 0.14809339 -0.1401325 -0.11499788 0.05174166 -0.16575815 -0.06106778 0.035435513 -0.00016869417 -0.07864798 0.011876118 -0.06870048 -0.039409533 -0.13523658 -0.19546244 -0.099208795 -0.23306452 0.003629819 -0.04118135 0.022112718 -0.21371362 -0.121252425 -0.02839602 0.027861437 0.16824444 -0.25356787 -0.044565372 0.19907218 -0.11222357 0.105438925 0.02466728 -0.040583 0.13504285
d64 -0.46499303 -0.07318972 -0.31937265 0.17863764 -0.09572768 0.45298252 -0.010178394 -0.16559972 0.07673059 -0.014496883 0.049640972 -0.16344409 -0.0823655 0.012503206 0.10625457 -0.08412205 0.004106039 -0.006708814 -0.13863462 0.25429085 0.0870964 -0.17510973 -0.4087281 0.20285979 0.35219425 -0.034788802 0.07977757 0.055598058 -0.24157798 -0.25331733 0.08770458 -0.026108816 -0.057008434 0.27424455 0.061376054 -0.06837568 0.15413602 -0.0011250181 0.03247859 0.12106934 -0.2201337 -0.1975102 -0.17485213 -0.1861169 0.55927074 0.044562258 -0.18813913 0.27128768 -0.16691902 0.20569207 -0.08097378 -0.16881235 0.092613965 -0.10346268 0.142971 -0.027843498 -0.47960892 0.30713403 0.28109053 0.16387495 0.16791444 -0.19811909 -0.17431504 -0.085550755 -0.12530124 0.04319297 0.047119513 0.022555532 0.052003205 0.029821416 -0.19816735 -0.23312032 0.028117068 0.009015372 -0.017363245 -0.014729438 -0.016168265 0.3135027 0.10736611 0.2919849 0.056792174 0.10379605 0.23354481 0.1519421 -0.04530303 -0.06895582 -0.054880235 0.103028305 -0.34148812 -0.12161985 -0.010375232 0.09082698 0.053152516 0.100935474 0.033013977 -0.0827003 0.11689543 0.273406 0.056948792 -0.1573648 0.029723639 0.042704478 -0.13013402 0.2998697 -0.41978788 0.01953094 0.050404843 -0.41331685 -0.25265253 -0.10845693 0.17330812 0.083641216 0.084973246 0.10390839 -0.23251364 -0.0705042 0.18474023 0.39667356 0.28074214 0.2842467 -0.07223993 -0.07748793 0.20612204 0.019910417 0.035464395 0.104568146 -0.12394746 0.20176585
d65 -0.009619564 -0.07191767 0.2344222 0.13052699 0.009842078 0.21740186 0.1778349 0.07801482 0.25432438 -0.14790645 0.0059477678 0.1917234 0.16631983 0.110810444 0.18773024 -0.038513828 0.38075504 -0.11615416 -0.12823842 -0.13774346 -0.03098846 0.1374648 0.22382604 -0.1784221 -0.035149667 0.024665395 0.18721776 0.2089508 0.19896574 0.18745331 -0.35196674 0.071816795 -0.0982271 -0.22015254 0.07797559 0.045982018 -0.22589475 0.016965894 -0.06301758 -0.12623046 0.24260892 -0.052119818 -0.36275604 0.19486107 -0.19521298 -0.065723784 0.4434603 -0.12703712 0.17907941 -0.122075416 -0.13488711 0.2752031 -0.25431126 0.11156263 0.40236974 0.29379603 0.3095594 0.1918345 -0.10671687 -0.3507888 0.102547444 0.19948763 -0.042590924 -0.2709806 0.13039854 -0.3718986 0.088170044 -0.10467718 -0.20364572 0.014525852 0.048093546 -0.05066494 -0.28436238 -0.05688924 -0.16889574 0.14504428 0.09793918 0.02165612 -0.09847301 -0.094166845 0.101117305 0.033752598 0.09144397 0.15451555 -0.18105686 0.10244923 0.118536994 -0.14395285 0.24298702 -0.15133025 -0.021069443 0.02595968 0.029985204 0.02065742 -0.20536636 0.3616997 0.23643398 0.16167751 -0.09842228 -0.10328321 0.0691038 0.17966557 -0.12996353 -0.14275916 -0.029780487 0.08786477 -0.105907604 0.13696194 -0.06562174 0.17076232 0.40511844 0.17484401 0.21171094 0.07697507 0.09780262 0.029949373 0.007624023 0.059906222 -0.04681914 -0.046508122 0.16909291 -0.09311222 -0.073356025 0.089297555 0.13276687 0.03724951 -0.107115656 -0.09045143
